tree
version=v4
num_class=1
num_tree_per_iteration=1
label_index=0
max_feature_idx=36
objective=regression
feature_names=Tier Sensor_Format Megapixels Sensor_Stacked Sensor_BSI Has_Global_Shutter In_Camera_Upscale Video_Res_Score Has_Raw_Video Video_Bit_Depth Has_Open_Gate Has_Timecode Is_Cinema_Camera Pro_Video_Score Burst_FPS AF_Eye_Control AF_Subject_Detect Has_Pre_Capture EVF_Res Screen_Type Has_IBIS Weather_Sealed Battery_Life_Score Edition_Limited Market_Age Storage_CFexpress Storage_UHS_II Has_Dual_Slot Has_Wi_Fi_6E Has_Full_HDMI Has_Mic_Port Has_Headphone_Port Is_Kit Lens_Score Lens_OIS Stabilization_Combined price_per_mp
feature_infos=-1:0:2:1:4:5:3 -1:1:0:4 [12:61] [0:1] [0:1] [0:1] none [0:8] [0:1] [8:10] none none [0:1] [1.3333333333333333:3.333333333333333] [8:1000] [0:1] [0:1] [0:1] [1.03:9.4399999999999995] -1:0:1:2 [0:1] none none none none [0:1] [0:1] [0:1] none none none none [0:1] [0:4] [0:1] [0:2] [24.776119402985078:528.83333333333337]
tree_sizes=2850 3014 3027 3020 3073 2979 2896 3013 3109 3091 2990 3068 3050 3073 2961 3112 3057 3036 3130 3159 3111 3067 3074 3064 3113 3047 3112 3050 3039 3102 2934 3012 3084 3103 3044 3109 3107 3123 3007 3077 3125 3112 3153 3102 3042 3073 3049 3088 3153 3077 3115 3081 3071 3033 3071 3099 3108 3198 3143 3172 3109 2989 3052 3085 3028 3008 3012 3052 3153 3136 3176 3078 3138 3096 3125 3188 3191 3134 3115 3151 3105 3181 3189 3247 3186 3152 3143 3140 3212 3145 3103 3129 3053 3107 3118 3113 3114 3183 3146 3161 3084 3206 3128 3218 3210 3209 3108 3266 3070 3122 3232 3157 3238 3228 3221 3167 3176 3290 3155 3173 3218 3209 3193 3211 3172 3198 3232 3146 3224 3227 3277 3255 3250 3273 3310 3215 3153 3189 3252 3255 3264 3242 3235 3265 3261 3214 3222 3261 3248 3295 3179 3287 3269 3229 3218 3252 3234 3259 3292 3191 3171 3201 3185 3176 3246 3248 3167 3236 3221 3269 3189 2538 3199 3209 2671 3005 2875 3202 3264 2925 2892 2982 2201 2458 2213 3254 3266 3267 3281 3330 2253 2278 2299 1976 2237 2237 2158 2407 2060 2401 2711 2993 3076 2982 2971 1326 1311 1310 1311 1991 1812 2147 2144 1902 2031 3069 3013 2154 2608 3174 3287 3342 3139 3268 3252 3293 2614 3109 2701 2583 3035 3219 3239 1371 3035 1822 1561 1762 1744 1778 3244 3345 3219 3209 3314 2506 3244 3296 3236 2031 1556 1972 1840 1554 1806 3295 3291 3200 2811 3208 3119 3284 3238 2589 3333 2232 2502 2635 3136 2043 3238 3204 3199 3216 3238 3239 3199 3259 1809 2761 2540 3309 3183 3055 2998 3247 2539 3309 3204 2344 2193 2200 2741 2091 3226 2871 2872 2780 2884 2792 1960 3213 2168 1918 2169 2890 2857 3284 1965 2670 2459 2252 2855 3343 2443 1355 2126 1350 2119 1271 2489 1780 1808 1890 1783 1470 1753 3142 1462 1461 3340 3308 3340 3346 3312 1782 2497 1454 2496 1153 3253 3368 3355 3402 3328 2719 2904 3264 2596 2615 3007 3207 2990 2768 3216 3267 3227 3297 3178 3252 3315 3391 3307 3331 3386 2817 2828 2743 2746 2265 2875 2871 3025 3061 2389 3335 2879 2692 3289 2832 3253 3239 3181 3306 3193 2381 2682 2341 2328 2951 2057 3195 2018 1985 2139

Tree=0
num_leaves=31
num_cat=2
split_feature=1 36 14 33 36 18 36 2 19 34 36 15 36 2 36 36 36 36 36 36 33 36 36 36 36 2 36 15 36 15
split_gain=111.3 28.3976 23.1956 7.19547 5.86017 4.05259 2.73803 2.09801 2.08696 1.06746 1.05427 0.962664 0.795584 0.574946 0.959951 0.546426 0.459348 0.411085 0.367479 0.301119 0.34535 0.290751 0.289359 0.248053 0.228288 0.194291 0.186678 0.237679 0.129459 0.122627
threshold=0 51.669547043865236 15.500000000000002 2.5000000000000004 82.322949777495253 3.0200000000000005 32.806011265984132 55.500000000000007 1 1.0000000180025095e-35 113.16477908455181 1.0000000180025095e-35 66.772727272727295 55.500000000000007 245.62054063360884 26.809547304798325 77.275469735182853 162.1138461538462 44.982936556885001 287.09364669421495 3.5000000000000004 122.4559090909091 89.34767759562844 264.60399449035816 61.969746646795834 25.300000000000004 83.056116015132417 1.0000000180025095e-35 56.454098360655742 1.0000000180025095e-35
decision_type=1 2 2 2 2 2 2 2 1 2 2 2 2 2 2 2 2 2 2 2 2 2 2 2 2 2 2 2 2 2
left_child=2 6 3 8 12 7 15 19 22 23 -6 13 28 14 -10 -2 -9 -11 25 20 -5 -12 -1 -4 -15 -8 -7 -28 -3 -19
right_child=1 4 9 5 10 26 18 16 11 17 21 -13 -14 24 -16 -17 -18 29 -20 -21 -22 -23 -24 -25 -26 -27 27 -29 -30 -31
leaf_value=7.9151674941344607 7.8805477895217972 7.911263961331402 7.9513447615294206 7.9342897675984272 7.9271390732135316 7.9471897086291063 7.8974071975920674 7.9452377723958501 7.9306282014147795 7.9573972916765561 7.934408685540264 7.9267920357605393 7.9199490559744259 7.9372414226806214 7.9384254384037733 7.8906986642046322 7.9546499228639949 7.9673555870218626 7.906480608598744 7.9408427413934604 7.9395141110359182 7.9432688702209342 7.9253738266466609 7.9594140792055477 7.9433788162036292 7.9024171645153567 7.9536634474492951 7.9480340168042529 7.9149130449712963 7.9632868533296932
leaf_weight=5 7.0000000000000027 14.999999999999998 7.9999999999999982 31 23 7.9999999999999991 19 21.000000000000004 30 5.9999999999999991 9.9999999999999982 11.999999999999998 31 12.000000000000002 27 14.999999999999998 5.9999999999999991 20 7.9999999999999991 17 18 4.9999999999999991 5 6 9.9999999999999982 11.000000000000002 27 8.9999999999999982 21 10.000000000000002
leaf_count=5 7 15 8 31 23 8 19 21 30 6 10 12 31 12 27 15 6 20 8 17 18 5 5 6 10 11 27 9 21 10
internal_value=7.932 7.91236 7.94326 7.93935 7.92176 7.94383 7.89589 7.94028 7.93328 7.96183 7.93117 7.93471 7.91643 7.93591 7.93432 7.88747 7.94733 7.96457 7.90077 7.9374 7.93621 7.93736 7.92027 7.9548 7.94003 7.89924 7.95133 7.95226 7.91339 7.966
internal_weight=453 165 288 238 105 137 60 93 101 50 38 91 67 79 57 22 27 36 38 66 49 15 10 14 22 30 44 36 36 30
internal_count=453 165 288 238 105 137 60 93 101 50 38 91 67 79 57 22 27 36 38 66 49 15 10 14 22 30 44 36 36 30
cat_boundaries=0 1 2
cat_threshold=2 2
is_linear=0
shrinkage=1


Tree=1
num_leaves=31
num_cat=2
split_feature=1 36 14 33 36 18 36 19 34 36 36 14 36 14 36 34 7 36 36 36 36 36 36 16 36 36 3 36 18 36
split_gain=104.722 26.7193 21.8247 6.77022 5.51954 3.81308 2.58522 1.96362 1.00437 0.873214 0.851493 0.844224 0.67181 0.67161 1.10657 0.523096 0.44373 0.38679 0.288909 0.273568 0.272258 0.252482 0.233393 0.232414 0.207452 0.199002 0.194971 0.175645 0.19744 0.144556
threshold=0 51.669547043865236 15.500000000000002 2.5000000000000004 84.282279319041621 3.0200000000000005 34.145661157024797 1 1.0000000180025095e-35 66.772727272727295 113.16477908455181 9.0000000000000018 26.809547304798325 9.0000000000000018 245.62054063360884 1.0000000180025095e-35 7.0000000000000009 162.1138461538462 287.09364669421495 122.4559090909091 89.34767759562844 44.982936556885001 264.60399449035816 1.0000000180025095e-35 64.286411055412557 106.18281172379535 1.0000000180025095e-35 83.056116015132417 4.7300000000000013 353.49593495934965
decision_type=1 2 2 2 2 2 2 1 2 2 2 2 2 2 2 2 2 2 2 2 2 2 2 2 2 2 2 2 2 2
left_child=2 6 3 7 9 11 12 20 22 -3 -6 -5 -2 24 16 25 -15 -10 -17 -12 -1 -8 -4 -16 -9 -13 29 -7 -29 -19
right_child=1 4 8 5 10 27 21 13 17 -11 19 15 -14 14 23 18 -18 26 -20 -21 -22 -23 -24 -25 -26 -27 -28 28 -30 -31
leaf_value=-0.016394078493118285 -0.049975191184452573 -0.018115732173124947 0.018697870709002022 0.012955869073453155 -0.004320842921733856 0.014667469896376132 -0.030943555927276607 0.0048138595124085724 0.024568825364112853 -0.011411642616285998 0.0022698777168989183 0.0079168535470962535 -0.039176719486713411 -0.0024603578032526582 0.0048392088508064091 0.0038755996912784342 0.0069937343895435334 0.029965239912271492 0.0085109119555529418 0.010864256858825683 -0.0064939350709319098 -0.02482035756111145 0.026525109410285942 0.012004572093486786 0.011453404426574706 0.016020604372024533 0.036923435926437362 0.016232501214200799 0.021055576372146605 0.03542551398277282
leaf_weight=5 7.0000000000000027 36 7.9999999999999982 23 20 7.9999999999999991 25 9.0000000000000018 5.9999999999999991 34 9.9999999999999982 4.9999999999999982 20 42 22.000000000000004 42 4.9999999999999991 16.000000000000004 17 4.9999999999999991 5 7.9999999999999991 6 4.9999999999999991 7.9999999999999991 6 8.0000000000000018 10.999999999999998 25 5.9999999999999991
leaf_count=5 7 36 8 23 20 8 25 9 6 34 10 5 20 42 22 42 5 16 17 5 5 8 6 5 8 6 8 11 25 6
internal_value=-6.50535e-05 -0.0191216 0.0108528 0.00706753 -0.0099958 0.011412 -0.0350919 0.00117456 0.0288706 -0.0148595 -0.00026848 0.00796939 -0.0419763 0.00256122 0.00132593 0.00633098 -0.0014546 0.0315221 0.0052112 0.00513467 -0.011444 -0.0294591 0.0220524 0.00616613 0.00793835 0.0123371 0.0329128 0.0186883 0.0195819 0.0314544
internal_weight=453 165 288 238 105 137 60 101 50 70 35 93 27 91 74 70 47 36 59 15 10 33 14 27 17 11 30 44 36 22
internal_count=453 165 288 238 105 137 60 101 50 70 35 93 27 91 74 70 47 36 59 15 10 33 14 27 17 11 30 44 36 22
cat_boundaries=0 1 2
cat_threshold=2 2
is_linear=0
shrinkage=0.03


Tree=2
num_leaves=31
num_cat=2
split_feature=1 36 14 33 36 18 36 19 35 36 15 14 36 35 36 36 14 36 36 36 36 36 36 36 3 36 15 36 36 36
split_gain=98.5329 25.1402 20.5349 6.3701 5.19784 3.58773 2.43588 1.84757 0.945014 0.930634 0.870582 0.79433 0.701968 0.492181 0.480857 0.418546 0.661552 0.363931 0.338297 0.271835 0.2574 0.256167 0.219599 0.187241 0.183448 0.165265 0.212793 0.136012 0.121808 0.120299
threshold=0 51.669547043865236 15.500000000000002 2.5000000000000004 82.322949777495253 3.0200000000000005 32.806011265984132 1 1.5000000000000002 113.16477908455181 1.0000000180025095e-35 9.0000000000000018 66.772727272727295 1.0000000180025095e-35 26.809547304798325 277.50614837398376 9.0000000000000018 162.1138461538462 40.470580979400523 287.09364669421495 122.4559090909091 89.34767759562844 264.60399449035816 106.18281172379535 1.0000000180025095e-35 83.056116015132417 1.0000000180025095e-35 353.49593495934965 56.454098360655742 95.39936268277178
decision_type=1 2 2 2 2 2 2 1 2 2 2 2 2 2 2 2 2 2 2 2 2 2 2 2 2 2 2 2 2 2
left_child=2 6 3 7 12 11 14 21 22 29 15 -5 28 23 -2 16 -9 -10 -8 -15 -11 -1 -4 -13 27 -7 -27 -19 -3 -6
right_child=1 4 8 5 9 25 18 10 17 20 -12 13 -14 19 -16 -17 -18 24 -20 -21 -22 -23 -24 -25 -26 26 -28 -29 -30 -31
leaf_value=-0.015902256131172177 -0.048475936480930841 -0.019637033820152285 0.018136934638023378 0.012567193585893381 -0.0062087583541870104 0.014227445684373377 -0.032270402406391341 0.0077002003964255833 0.023831759691238401 0.0022017813809216023 -0.0050444618373876437 0.0076793478727340703 -0.011413613509747289 0.0037593316596134432 -0.038953542709350586 0.0083331369076456337 0.00081344055863155509 0.029066284261643878 -0.026609199549022473 0.0082555845116867727 0.010538329124450683 -0.0062991172336041915 0.025729355216026303 0.015539985895156856 0.035815733671188336 0.020326046148935951 0.014999473591645558 0.03436274766921997 -0.016097421816417146 -0.001653366854880005
leaf_weight=5 7.0000000000000027 14.999999999999998 7.9999999999999982 23 15.000000000000002 7.9999999999999991 19 17 5.9999999999999991 9.9999999999999982 11.999999999999998 4.9999999999999982 31 42 14.999999999999998 13.999999999999998 48 16.000000000000004 19 17 4.9999999999999991 5 6 6 8.0000000000000018 27 8.9999999999999982 5.9999999999999991 21 7.9999999999999991
leaf_count=5 7 15 8 23 15 8 19 17 6 10 12 5 31 42 15 14 48 16 19 17 5 5 6 6 8 27 9 6 21 8
internal_value=-6.3102e-05 -0.018548 0.0105272 0.0068555 -0.00969593 0.0110696 -0.0340391 0.00113933 0.0280045 -0.000832864 0.00248438 0.00773031 -0.0147227 0.00614105 -0.0419834 0.00362801 0.00261459 0.0305765 -0.0294398 0.00505486 0.00498063 -0.0111007 0.0213908 0.011967 0.0319254 0.0181277 0.0189944 0.0305108 -0.0175723 -0.00462427
internal_weight=453 165 288 238 105 137 60 101 50 38 91 93 67 70 22 79 65 36 38 59 15 10 14 11 30 44 36 22 36 23
internal_count=453 165 288 238 105 137 60 101 50 38 91 93 67 70 22 79 65 36 38 59 15 10 14 11 30 44 36 22 36 23
cat_boundaries=0 1 2
cat_threshold=2 2
is_linear=0
shrinkage=0.03


Tree=3
num_leaves=31
num_cat=2
split_feature=1 36 14 33 36 18 36 2 19 34 36 15 36 36 2 36 36 36 36 33 36 36 36 36 36 3 36 15 36 36
split_gain=92.7096 23.6544 19.3212 5.99362 4.89065 3.3757 2.29997 1.81711 1.73838 0.889164 0.875634 0.819131 0.660482 0.592227 0.48632 0.815699 0.439684 0.342422 0.25917 0.303426 0.242188 0.241028 0.230013 0.206621 0.202956 0.172606 0.155498 0.200217 0.127974 0.114609
threshold=0 51.669547043865236 15.500000000000002 2.5000000000000004 82.322949777495253 3.0200000000000005 34.145661157024797 55.500000000000007 1 1.0000000180025095e-35 113.16477908455181 1.0000000180025095e-35 66.772727272727295 26.809547304798325 55.500000000000007 245.62054063360884 77.275469735182853 162.1138461538462 287.09364669421495 3.5000000000000004 122.4559090909091 89.34767759562844 44.982936556885001 264.60399449035816 61.969746646795834 1.0000000180025095e-35 83.056116015132417 1.0000000180025095e-35 353.49593495934965 56.454098360655742
decision_type=1 2 2 2 2 2 2 2 1 2 2 2 2 2 2 2 2 2 2 2 2 2 2 2 2 2 2 2 2 2
left_child=2 6 3 8 12 7 13 18 21 23 -6 14 29 -2 15 -10 -9 -11 19 -5 -12 -1 -8 -4 -16 28 -7 -28 -19 -3
right_child=1 4 9 5 10 26 22 16 11 17 20 -13 -14 -15 24 -17 -18 25 -20 -21 -22 -23 -24 -25 -26 -27 27 -29 -30 -31
leaf_value=-0.015425188064575192 -0.047021657058170838 -0.019047922372817994 0.0175928270816803 0.0019100704452683847 -0.0044855460277556077 0.013800622411072253 -0.029121864938735961 0.012008400644574844 -0.001347784424688143 0.02311680793762207 0.0021357279606163504 -0.0048931280244141817 -0.011071205446797032 -0.03688293546438217 0.0046775123476982096 0.0058397679196463687 0.021216884851455689 0.028194295316934577 0.0080079172989901363 0.0068070506925384201 0.010222179293632507 -0.0061101437620818605 -0.02327747046947479 0.024957474470138546 0.010464374899864196 0.034741262197494495 0.0197162655989329 0.014549489617347717 0.033331867456436154 -0.015614499279430934
leaf_weight=5 7.0000000000000027 14.999999999999998 7.9999999999999982 31 23 7.9999999999999991 25 21.000000000000004 30 5.9999999999999991 9.9999999999999982 11.999999999999998 31 20 12.000000000000002 27 5.9999999999999991 16.000000000000004 17 18 4.9999999999999991 5 7.9999999999999991 6 9.9999999999999982 8.0000000000000018 27 8.9999999999999982 5.9999999999999991 21
leaf_count=5 7 15 8 31 23 8 25 21 30 6 10 12 31 20 12 27 6 16 17 18 5 5 8 6 10 8 27 9 6 21
internal_value=-6.12087e-05 -0.0179916 0.0102114 0.00664984 -0.00940505 0.0107375 -0.0330179 0.0074984 0.00110515 0.0271644 -0.000807878 0.00240985 -0.0142811 -0.0395115 0.00351917 0.00205685 0.0140547 0.0296592 0.00481627 0.00370896 0.00483121 -0.0107677 -0.027705 0.0207491 0.0073079 0.0309677 0.0175839 0.0184246 0.0295955 -0.0170451
internal_weight=453 165 288 238 105 137 60 93 101 50 38 91 67 27 79 57 27 36 66 49 15 10 33 14 22 30 44 36 22 36
internal_count=453 165 288 238 105 137 60 93 101 50 38 91 67 27 79 57 27 36 66 49 15 10 33 14 22 30 44 36 22 36
cat_boundaries=0 1 2
cat_threshold=2 2
is_linear=0
shrinkage=0.03


Tree=4
num_leaves=31
num_cat=1
split_feature=1 36 18 33 36 4 7 36 16 36 3 2 36 36 36 2 36 2 36 36 36 36 36 36 2 36 8 33 33 36
split_gain=87.2304 22.2565 14.9649 4.97036 4.60856 2.55993 2.17018 2.16713 1.9113 1.7028 1.20944 0.970778 0.789323 0.724782 0.706238 0.618785 0.616634 0.49323 0.423132 0.421487 0.41737 0.302835 0.276923 0.227874 0.197463 0.18481 0.184464 0.179943 0.161921 0.132672
threshold=0 51.669547043865236 3.6900000000000008 2.5000000000000004 84.282279319041621 1.0000000180025095e-35 7.0000000000000009 32.806011265984132 1.0000000180025095e-35 88.134615384615401 1.0000000180025095e-35 24.100000000000005 141.33272727272728 66.772727272727295 113.16477908455181 24.100000000000005 277.50614837398376 55.500000000000007 26.809547304798325 208.82733333333334 329.90452235772358 40.470580979400523 73.312121212121227 122.4559090909091 29.500000000000004 64.286411055412557 1.0000000180025095e-35 2.5000000000000004 3.5000000000000004 78.386668473106639
decision_type=1 2 2 2 2 2 2 2 2 2 2 2 2 2 2 2 2 2 2 2 2 2 2 2 2 2 2 2 2 2
left_child=2 7 3 8 13 -5 11 18 17 27 15 16 -13 -3 -6 28 -7 19 -2 29 26 -9 24 -16 -10 -19 -17 -4 -11 -1
right_child=1 4 9 5 14 6 -8 21 22 10 -12 12 -14 -15 23 20 -18 25 -20 -21 -22 -23 -24 -25 -26 -27 -28 -29 -30 -31
leaf_value=-0.0053457847237586937 -0.04561100823538642 -0.01653373951713244 0.0065497512817382806 0.030754309415817256 -0.0039250530505087226 -0.00072569999657571313 0.026331135034561155 -0.030367362875687452 -0.014962432265281669 0.012526540495455266 0.032235382854938502 0.0086975219721595453 0.018293753663698831 -0.010425959360950133 0.0020716561786830422 0.020369584709405898 0.0070281257666647435 0.0042981122930844601 -0.036678446531295775 0.0039024797128513456 0.030768946409225464 -0.02501109198520058 -0.0036494141779839992 0.0099155141115188604 -0.0071565807504313317 0.010564864575862884 0.024911223487420513 0.013647926151752471 0.019408539533615109 -0.00022863000239196576
leaf_weight=6.0000000000000027 7.0000000000000027 36 4.9999999999999991 4.9999999999999991 20 14.999999999999998 5.9999999999999991 19 5.0000000000000018 7.9999999999999982 9.9999999999999982 54 8.9999999999999982 34 9.9999999999999982 30 24 9.0000000000000018 14.999999999999998 28 4.9999999999999991 19 9.9999999999999982 4.9999999999999991 7 7.9999999999999991 10.999999999999998 8.9999999999999982 5 19
leaf_count=6 7 36 5 5 20 15 6 19 5 8 10 54 9 34 10 30 24 9 15 28 5 19 10 5 7 8 11 9 5 19
internal_value=-5.93725e-05 -0.0174518 0.00990504 0.0055537 -0.0091229 0.00976865 0.0087971 -0.0320274 0.000376634 0.0206523 0.0225879 0.00776568 0.0100684 -0.0135671 -0.000234484 0.0209527 0.00404589 0.00280075 -0.0395206 0.00137454 0.022586 -0.0276892 -0.00733647 0.00468628 -0.010409 0.00724717 0.0215881 0.0111129 0.0151735 -0.00145675
internal_weight=453 165 288 205 105 113 108 60 92 83 69 102 63 70 35 59 39 70 22 53 46 38 22 15 12 17 41 14 13 25
internal_count=453 165 288 205 105 113 108 60 92 83 69 102 63 70 35 59 39 70 22 53 46 38 22 15 12 17 41 14 13 25
cat_boundaries=0 1
cat_threshold=2
is_linear=0
shrinkage=0.03


Tree=5
num_leaves=31
num_cat=4
split_feature=1 36 14 2 36 36 36 36 19 34 36 36 36 36 36 2 36 36 2 2 36 19 36 3 36 19 36 36 36 2
split_gain=88.085 19.1636 16.3617 5.85714 4.73628 3.17299 2.0356 1.8235 1.6753 0.950514 0.851876 0.835917 0.794494 0.552382 0.499762 0.437505 0.362894 0.342618 0.323455 0.304678 0.287618 0.16417 0.15267 0.112176 0.112094 0.105473 0.111264 0.102637 0.0949423 0.090502
threshold=0 54.455863808322832 15.500000000000002 55.500000000000007 82.322949777495253 89.966515151515168 34.145661157024797 83.056116015132417 1 1.0000000180025095e-35 122.4559090909091 66.772727272727295 133.59421328671331 277.50614837398376 68.536503783102162 29.500000000000004 162.1138461538462 99.791929382093329 29.500000000000004 22.050000000000004 44.982936556885001 2 73.312121212121227 1.0000000180025095e-35 96.967213114754117 3 56.454098360655742 61.969746646795834 353.49593495934965 41.500000000000007
decision_type=1 2 2 2 2 2 2 2 1 2 2 2 2 2 2 2 2 2 2 2 2 1 2 2 2 1 2 2 2 2
left_child=2 6 3 5 11 18 19 14 12 21 17 25 -7 15 27 -10 -11 -6 -1 -2 -8 -4 -20 28 -9 -3 -27 -5 29 -18
right_child=1 4 9 7 10 8 20 24 13 16 -12 -13 -14 -15 -16 -17 23 -19 22 -21 -22 -23 -24 -25 -26 26 -28 -29 -30 -31
leaf_value=-0.01019934196025133 -0.041242953709193619 -0.020843169629573815 0.021920023262500764 0.0044590221819552503 -0.0055190296936780212 0.0049032984673976878 -0.027127510723860365 0.017930945072855264 -0.00042942019864650709 0.022280239686369895 0.010900467485189438 -0.010435440738995869 0.015350231936103418 0.0066003107428550716 0.012414756137877703 0.005436768816674457 0.024578896420342576 0.00068939668155508114 -0.0059856245057149345 -0.034057070992209698 -0.02154480471060826 0.015629022972924365 -0.0013325194946955889 0.032520418167114241 0.021882285624742509 -0.017892747170784894 -0.014460421485059402 0.0086584190726280204 0.031535237431526184 0.029249810725450506
leaf_weight=7.9999999999999991 7.0000000000000027 5 7.9999999999999982 11 15.999999999999998 10.000000000000002 23 14.000000000000002 35 7.9999999999999991 4.9999999999999991 36 19 30 32 17 7.0000000000000009 15.999999999999998 11.000000000000002 22 12.999999999999998 7 14.999999999999998 8.0000000000000018 11.999999999999998 17 17 10 5.9999999999999991 8
leaf_count=8 7 5 8 11 16 10 23 14 35 8 5 36 19 30 32 17 7 16 11 22 13 7 15 8 12 17 17 10 6 8
internal_value=-0.00039959 -0.0169189 0.0101943 0.00667497 -0.00939882 0.00309426 -0.0298765 0.0132472 0.00555038 0.0253544 -0.000615454 -0.0137319 0.0117478 0.00335859 0.0100548 0.00148837 0.027937 -0.00241482 -0.00492425 -0.0357916 -0.0251115 0.0189842 -0.00330114 0.0294974 0.0197546 -0.0167749 -0.0161766 0.00645873 0.0283458 0.0270701
internal_weight=453 177 276 224 112 145 65 79 111 52 37 75 29 82 53 52 37 32 34 29 36 15 26 29 26 39 34 21 21 15
internal_count=453 177 276 224 112 145 65 79 111 52 37 75 29 82 53 52 37 32 34 29 36 15 26 29 26 39 34 21 21 15
cat_boundaries=0 1 2 3 4
cat_threshold=2 4 1 2
is_linear=0
shrinkage=0.03


Tree=6
num_leaves=31
num_cat=4
split_feature=1 14 2 2 16 18 15 15 9 13 14 34 9 32 15 18 2 19 18 12 7 34 19 2 20 19 34 27 18 15
split_gain=82.8791 15.3947 9.85766 5.51098 2.51238 1.90664 1.75673 1.68353 1.17975 1.0491 0.924559 0.894339 0.396523 0.274638 0.224561 0.21891 0.202819 0.154467 0.151896 0.142714 0.067186 0.0441103 0.0419328 0.041096 0.0358003 0.0321614 0.014222 0.0120617 0.00894185 0.0157468
threshold=0 15.500000000000002 25.300000000000004 55.500000000000007 1.0000000180025095e-35 7.6000000000000005 1.0000000180025095e-35 1.0000000180025095e-35 9.0000000000000018 2.0833333333333335 9.0000000000000018 1.0000000180025095e-35 9.0000000000000018 1.0000000180025095e-35 1.0000000180025095e-35 7.6000000000000005 22.050000000000004 1 3.0200000000000005 1.0000000180025095e-35 1.0000000180025095e-35 1.0000000180025095e-35 2 41.500000000000007 1.0000000180025095e-35 3 1.0000000180025095e-35 1.0000000180025095e-35 1.9000000000000001 1.0000000180025095e-35
decision_type=1 2 2 2 2 2 2 2 2 2 2 2 2 2 2 2 2 1 2 2 2 2 1 2 2 1 2 2 2 2
left_child=1 3 4 5 9 8 -6 12 27 16 20 17 -4 -11 23 25 -2 -3 19 -10 -5 -17 -14 -13 -20 -12 -22 -1 29 -15
right_child=2 11 7 10 6 -7 -8 -9 18 13 15 14 22 28 -16 21 -18 -19 24 -21 26 -23 -24 -25 -26 -27 -28 -29 -30 -31
leaf_value=-0.0072485481575131419 -0.037213625510533636 0.021262422502040867 -0.0086386976391077033 0.012277208045125007 -0.0083284134918358184 0.015641193151473998 -0.022205188383276647 -0.01497442739928374 0.0047029429555616592 -0.031360510110855097 0.020194461643695826 0.028023526180874211 -0.0058505489677190773 -0.025403274595737452 0.024563848972320557 0.012771191552281376 -0.030648632571101182 0.015160152656691413 0.0069093614257872086 0.0019852629490757739 0.010426601458873067 0.015588965758681295 -0.0029910219311714168 0.030757023493448887 0.0041511818440631018 0.017580211758613584 0.0089091652466191176 -0.0053702374077402044 -0.023217828154563899 -0.023229789435863492
leaf_weight=7.9999999999999982 9 7.9999999999999982 32 7.9999999999999991 11.999999999999998 9.9999999999999982 26 32 22 4.9999999999999991 8 11 6 6 17 10 8 7 9 83 6.9999999999999991 10 20.000000000000004 9 8 9 27 5 15 6
leaf_count=8 9 8 32 8 12 10 26 32 22 5 8 11 6 6 17 10 8 7 9 83 7 10 20 9 8 9 27 5 15 6
internal_value=-0.000387602 0.00988846 -0.0164113 0.00647472 -0.0236121 0.00300143 -0.017823 -0.00945049 0.00206515 -0.0281016 0.0128498 0.0245938 -0.00640279 -0.0249021 0.0270988 0.0163075 -0.0341242 0.0184147 0.00298062 0.00255468 0.0098036 0.0141801 -0.00365091 0.0292536 0.00561139 0.0188104 0.00922158 -0.00652612 -0.0237061 -0.0243165
internal_weight=453 276 177 224 87 145 38 90 135 49 79 52 58 32 37 37 17 15 122 105 42 20 26 20 17 17 34 13 27 12
internal_count=453 276 177 224 87 145 38 90 135 49 79 52 58 32 37 37 17 15 122 105 42 20 26 20 17 17 34 13 27 12
cat_boundaries=0 1 2 3 4
cat_threshold=2 1 4 1
is_linear=0
shrinkage=0.03


Tree=7
num_leaves=31
num_cat=3
split_feature=1 36 14 2 36 36 18 36 36 34 36 36 36 36 2 36 2 2 36 36 19 36 36 36 36 19 36 20 2 36
split_gain=77.981 17.3458 14.4849 5.18528 4.35868 2.93526 2.19744 1.83347 1.64749 0.841483 0.826398 0.71315 0.464252 0.430218 0.508734 0.334904 0.304001 0.278651 0.259342 0.21481 0.145338 0.144889 0.104066 0.0985907 0.0881049 0.081691 0.103855 0.0742333 0.0716121 0.16201
threshold=0 54.455863808322832 15.500000000000002 55.500000000000007 84.282279319041621 89.966515151515168 3.0200000000000005 36.712968849332491 83.056116015132417 1.0000000180025095e-35 66.772727272727295 122.4559090909091 68.536503783102162 277.50614837398376 29.500000000000004 162.1138461538462 22.050000000000004 29.500000000000004 99.791929382093329 44.982936556885001 1 78.386668473106639 96.967213114754117 61.969746646795834 30.129820936639124 2 61.003496503496514 1.0000000180025095e-35 41.500000000000007 353.49593495934965
decision_type=1 2 2 2 2 2 2 2 2 2 2 2 2 2 2 2 2 2 2 2 1 2 2 2 2 1 2 2 2 2
left_child=2 7 3 5 10 17 13 16 12 20 25 18 23 14 -7 -11 -2 -1 -6 -9 -4 -19 -10 -5 -18 -3 -27 -8 29 -17
right_child=1 4 9 8 11 6 27 19 22 15 -12 -13 -14 -15 -16 28 24 21 -20 -21 -22 -23 -24 -25 -26 26 -28 -29 -30 -31
leaf_value=-0.0096970362961292262 -0.038889258078166414 -0.019340134620666499 0.020624550171196462 0.0040040220692753783 -0.0047519994928286614 -0.00045837748063994304 0.016161154698241836 -0.025236549228429793 0.016892520700182229 0.020851693153381347 -0.009583868407286129 0.010663184076547622 0.011704443544149398 0.0063046960383653641 0.0050224536781509716 0.023030478102820252 -0.03382525758309797 -0.0057133334875106787 0.00095260341506218536 -0.02028297529770778 0.014705347844532556 -0.0012210055700935688 0.020699733644723894 0.008119805753231046 -0.030237434378692082 -0.016620434358716008 -0.013251474904162543 0.01236314563080668 0.029128747768700121 0.029748474955558771
leaf_weight=7.9999999999999991 6.9999999999999991 5 7.9999999999999982 11 13.000000000000002 35 11 20 14.000000000000002 7.9999999999999991 39 4.9999999999999991 32 30 27 7.0000000000000018 11.000000000000002 12.000000000000002 15.999999999999998 12.999999999999998 7 13.999999999999998 11.999999999999998 10 13.999999999999998 20 13.999999999999998 8 15.999999999999998 6
leaf_count=8 7 5 8 11 13 35 11 20 14 8 39 5 32 30 27 7 11 12 16 13 7 14 12 10 14 20 14 8 16 6
internal_value=-0.000375974 -0.015919 0.00959181 0.00628048 -0.00876446 0.00291139 0.00527371 -0.0282467 0.0124643 0.023856 -0.0126718 0.000199458 0.0094299 0.00335548 0.00192844 0.0262859 -0.0333633 -0.00480089 -0.00160463 -0.0232851 0.0178623 -0.00329439 0.0186497 0.00596392 -0.0318161 -0.0157597 -0.0152332 0.014562 0.027785 0.0261311
internal_weight=453 177 276 224 112 145 111 65 79 52 78 34 53 92 62 37 32 34 29 33 15 26 26 21 25 39 34 19 29 13
internal_count=453 177 276 224 112 145 111 65 79 52 78 34 53 92 62 37 32 34 29 33 15 26 26 21 25 39 34 19 29 13
cat_boundaries=0 1 2 3
cat_threshold=2 1 2
is_linear=0
shrinkage=0.03


Tree=8
num_leaves=31
num_cat=1
split_feature=36 2 36 36 14 2 36 19 2 36 36 36 2 36 33 36 36 9 2 36 36 36 36 36 36 20 36 13 36 13
split_gain=65.6149 16.1523 12.4637 9.55677 5.6791 4.10584 3.2992 1.57582 1.22084 1.12678 0.875804 0.824936 0.681158 0.435772 0.419518 0.362314 0.294023 0.257335 0.243951 0.218379 0.188543 0.141996 0.0880635 0.0768174 0.0718952 0.0698461 0.0574754 0.0566325 0.0563221 0.0535061
threshold=64.286411055412557 41.500000000000007 104.25142821659217 49.27685950413224 15.500000000000002 55.500000000000007 93.445901639344271 0 29.500000000000004 34.145661157024797 162.1138461538462 271.87656504065046 22.050000000000004 133.59421328671331 1.5000000000000002 82.322949777495253 79.842152872003638 9.0000000000000018 22.050000000000004 56.454098360655742 74.344372218690424 353.49593495934965 137.34363636363639 219.04125000000002 95.39936268277178 1.0000000180025095e-35 68.536503783102162 2.0833333333333335 30.129820936639124 2.0833333333333335
decision_type=2 2 2 2 2 2 2 1 2 2 2 2 2 2 2 2 2 2 2 2 2 2 2 2 2 2 2 2 2 2
left_child=3 2 8 9 7 19 20 13 12 18 22 -6 -2 -4 23 -14 -10 -16 -1 29 26 -13 -8 -9 -17 -15 -3 -11 -20 -5
right_child=1 6 4 5 11 -7 10 14 16 27 -12 21 15 25 17 24 -18 -19 28 -21 -22 -23 -24 -25 -26 -27 -28 -29 -30 -31
leaf_value=-0.037722579411097912 -0.01891846239566803 0.0079129840930302914 0.0053690166132790672 -0.016546364843845363 0.013408792912960045 0.0041890141647309065 0.018666927516460416 -0.0043885524570941928 -0.0041046130284667012 -0.022671246528625479 0.028254885189235208 0.023018285393714904 -0.0092969075093666705 0.015676320141012015 0.00045420244194766771 -0.0053805837035179127 0.0013177794862228136 0.0049321593737907026 -0.032810499234633 -0.013230625675483183 0.013738123523561577 0.028856020867824555 0.022509896329471042 0.00064629893749952301 -0.0013374798819422722 0.011992251165211198 0.010778428912162779 -0.025467520728707314 -0.029774656079032201 -0.019776487648487089
leaf_weight=7.0000000000000027 4.9999999999999991 9.0000000000000018 7.0000000000000027 20.000000000000004 8.0000000000000018 11.999999999999998 23.000000000000004 5.9999999999999982 18 11.000000000000002 15.999999999999998 9.9999999999999982 36 11 13.999999999999998 19.000000000000004 18 66 11.000000000000002 22 19 5.9999999999999991 6.9999999999999991 5 4.9999999999999991 8 21 15.999999999999998 10.999999999999998 5.9999999999999991
leaf_count=7 5 9 7 20 8 12 23 6 18 11 16 10 36 11 14 19 18 66 11 22 19 6 7 5 5 8 21 16 11 6
internal_value=-0.000364695 0.00633396 0.00221888 -0.0198254 0.00798107 -0.0115065 0.0168166 0.00525421 -0.00582537 -0.0287386 0.0225867 0.0212746 -0.00827999 0.0117677 0.0033932 -0.00739345 -0.00139342 0.00414852 -0.0328446 -0.0154304 0.0113998 0.0252074 0.0195636 -0.00209998 -0.00453827 0.0141251 0.0099188 -0.0243283 -0.0312926 -0.0172918
internal_weight=453 337 242 116 141 60 95 117 101 56 46 24 65 26 91 60 36 80 29 48 49 16 30 11 24 19 30 27 22 26
internal_count=453 337 242 116 141 60 95 117 101 56 46 24 65 26 91 60 36 80 29 48 49 16 30 11 24 19 30 27 22 26
cat_boundaries=0 1
cat_threshold=4
is_linear=0
shrinkage=0.03


Tree=9
num_leaves=31
num_cat=2
split_feature=1 36 18 36 33 36 17 2 36 18 36 7 36 36 36 36 36 33 8 2 2 36 36 2 33 36 36 2 36 19
split_gain=68.9803 15.3758 11.2829 3.87637 3.53592 1.62637 1.6156 1.49807 1.64953 0.825274 0.782779 0.741263 0.737347 0.708779 0.648501 0.454702 0.369023 0.326958 0.378226 0.26848 0.25008 0.228475 0.192497 0.177888 0.162882 0.148314 0.130211 0.0989044 0.0773366 0.0761501
threshold=0 54.455863808322832 3.6900000000000008 84.282279319041621 3.5000000000000004 36.712968849332491 1.0000000180025095e-35 55.500000000000007 89.966515151515168 3.0200000000000005 78.386668473106639 7.0000000000000009 66.772727272727295 311.72251721763092 122.4559090909091 73.312121212121227 277.50614837398376 2.5000000000000004 1.0000000180025095e-35 22.050000000000004 29.500000000000004 99.791929382093329 44.982936556885001 55.500000000000007 1.5000000000000002 64.286411055412557 73.312121212121227 41.500000000000007 30.129820936639124 1
decision_type=1 2 2 2 2 2 2 2 2 2 2 2 2 2 2 2 2 2 2 2 2 2 2 2 2 2 2 2 2 1
left_child=2 5 4 12 7 19 10 8 20 16 -4 13 29 23 21 25 -10 27 -19 -2 -1 -5 -7 -6 -8 -9 -22 -12 -21 -3
right_child=1 3 6 14 11 22 24 15 9 -11 17 -13 -14 -15 -16 -17 -18 18 -20 28 26 -23 -24 -25 -26 -27 -28 -29 -30 -31
leaf_value=-0.0091712114587426188 -0.036590901783534462 -0.018294757246971129 0.0076638987660408008 -0.0044573521270201743 0.0065798221763811613 -0.023753176778554916 0.022318314760923375 0.0035641633240239921 0.0010358144263462985 0.01320392553295408 0.010527471516813552 0.022520676076412199 -0.0090042790426657741 0.018001122723023094 0.010195324391126633 0.017199528694152831 0.0057610057932989938 0.016982181913712445 0.023898430665334067 -0.031826185746626413 -0.0055848591165109096 0.00089701010263524943 -0.019063927393693191 0.010586073462452208 0.027844649702310559 0.0089805039648826312 -0.0012876221026526765 0.016051878511905666 -0.028464760780334473 -0.014329564343480502
leaf_weight=7.9999999999999991 6.9999999999999991 5 8.9999999999999982 13.000000000000002 19 20 8.0000000000000018 7.0000000000000062 51 6.9999999999999991 6.9999999999999982 4.9999999999999991 39 8.9999999999999982 4.9999999999999991 4.9999999999999991 21 34 8.9999999999999982 11.000000000000002 11.000000000000002 15.999999999999998 12.999999999999998 21 11.999999999999998 12.999999999999998 14.999999999999998 5 13.999999999999998 34
leaf_count=8 7 5 9 13 19 20 8 7 51 7 7 5 39 9 5 5 21 34 9 11 11 16 13 21 12 13 15 5 14 34
internal_value=-0.000353754 -0.0149722 0.00902115 -0.00823627 0.00500911 -0.0265789 0.0181915 0.0024624 0.000992192 0.00337007 0.0158657 0.0115174 -0.0119211 0.0103946 0.000217153 0.00910773 0.002414 0.0172079 0.0184298 -0.0313978 -0.00453287 -0.00150322 -0.0219059 0.0086831 0.0256341 0.00708478 -0.00310568 0.0128293 -0.0299438 -0.0148379
internal_weight=453 177 276 112 192 65 84 138 113 79 64 54 78 49 34 25 72 55 43 32 34 29 33 40 20 20 26 12 25 39
internal_count=453 177 276 112 192 65 84 138 113 79 64 54 78 49 34 25 72 55 43 32 34 29 33 40 20 20 26 12 25 39
cat_boundaries=0 1 2
cat_threshold=2 2
is_linear=0
shrinkage=0.03


Tree=10
num_leaves=31
num_cat=3
split_feature=1 36 0 36 14 33 36 16 33 36 2 36 18 2 2 36 36 36 36 12 36 36 18 36 33 19 33 2 36 33
split_gain=67.6658 15.8071 12.3566 3.46728 2.21082 2.14057 1.88019 1.10892 1.10472 0.655321 0.530438 0.5177 0.473794 0.67147 0.450571 0.432458 0.366548 0.355356 0.288066 0.222236 0.22073 0.214577 0.194368 0.179975 0.178021 0.134 0.116668 0.108504 0.0969779 0.0806857
threshold=0 54.455863808322832 1 82.322949777495253 25.000000000000004 2.5000000000000004 34.145661157024797 1.0000000180025095e-35 1.5000000000000002 122.4559090909091 22.050000000000004 141.33272727272728 3.0200000000000005 55.500000000000007 55.500000000000007 66.772727272727295 245.62054063360884 88.134615384615401 73.312121212121227 1.0000000180025095e-35 99.791929382093329 44.982936556885001 4.7300000000000013 299.48004476584026 3.5000000000000004 2 1.5000000000000002 25.300000000000004 64.286411055412557 1.5000000000000002
decision_type=1 2 1 2 2 2 2 2 2 2 2 2 2 2 2 2 2 2 2 2 2 2 2 2 2 1 2 2 2 2
left_child=2 6 5 15 8 7 10 14 19 20 -2 -6 13 23 16 -3 26 -10 25 -4 -5 27 -19 24 -7 -9 -1 -8 -16 -13
right_child=1 3 4 9 11 12 21 18 17 -11 -12 29 -14 -15 28 -17 -18 22 -20 -21 -22 -23 -24 -25 -26 -27 -28 -29 -30 -31
leaf_value=-0.0024308844956407402 -0.038568901419639569 -0.01385545510579558 0.011800311282277104 -0.0041991278808563943 0.017466263562440874 0.0017951284009031952 -0.025336060268538334 -0.012965322196483609 0.011727061027830296 0.009984553098678588 -0.029360190473104779 0.021915142178535445 0.012115514129400252 0.0098214958837399106 0.0037052563950419424 -0.0090344898402690884 0.0040883129027982556 0.020402372404932975 -0.0021010512179539848 0.0050918996483087526 0.00071022444897714785 -0.019035995364189148 0.016330989032022413 0.0070910550547497618 0.0055063557899311961 -0.0063155215233564347 0.0012181381904520095 -0.021448503732681271 0.0084133753180503836 0.026104310229420662
leaf_weight=23 8.0000000000000018 34 8 15.999999999999998 9.9999999999999982 30 14 5 10.999999999999998 4.9999999999999991 19 5.0000000000000027 11.999999999999998 26 6.9999999999999991 33 18 15.999999999999998 8.9999999999999982 10 17 14.999999999999998 31 13.999999999999998 19 6.0000000000000018 11.999999999999998 12 8.9999999999999982 24
leaf_count=23 8 34 8 16 10 30 14 5 11 5 19 5 12 26 7 33 18 16 9 10 17 15 31 14 19 6 12 12 9 24
internal_value=0.000314109 -0.014673 0.00881501 -0.00737536 0.0161421 0.0033541 -0.0259415 0.000138482 0.014566 -0.000136565 -0.0320887 0.0233524 0.00651975 0.00576526 0.00194136 -0.0114809 0.000609376 0.016581 -0.00608146 0.00807342 -0.00167007 -0.0218933 0.017717 0.00409126 0.00323418 -0.00933816 -0.00117979 -0.0235418 0.00635357 0.025382
internal_weight=478 173 305 105 115 190 68 89 76 38 27 39 101 89 69 67 53 58 20 18 33 41 47 63 49 11 35 26 16 29
internal_count=478 173 305 105 115 190 68 89 76 38 27 39 101 89 69 67 53 58 20 18 33 41 47 63 49 11 35 26 16 29
cat_boundaries=0 1 2 3
cat_threshold=2 5 2
is_linear=0
shrinkage=0.03


Tree=11
num_leaves=31
num_cat=0
split_feature=36 18 36 2 36 2 14 14 36 36 2 2 36 36 36 33 36 2 36 36 36 36 2 2 36 14 33 13 36 36
split_gain=58.8256 15.741 9.11786 4.85213 6.32199 3.90872 2.28881 1.40236 1.37526 1.04818 0.862373 0.764254 0.512481 0.499857 0.447406 0.415672 0.266472 0.259457 0.256437 0.251156 0.237953 0.222642 0.188693 0.103809 0.102743 0.0772463 0.0766271 0.0722582 0.0597257 0.0505217
threshold=64.286411055412557 3.6900000000000008 49.27685950413224 41.500000000000007 104.25142821659217 55.500000000000007 15.500000000000002 25.000000000000004 30.129820936639124 101.93442622950822 29.500000000000004 29.500000000000004 264.60399449035816 82.322949777495253 141.33272727272728 1.5000000000000002 137.34363636363639 24.100000000000005 88.134615384615401 36.712968849332491 58.40384615384616 79.842152872003638 24.100000000000005 22.050000000000004 68.536503783102162 15.500000000000002 1.5000000000000002 2.0833333333333335 41.735219326128423 466.33333333333337
decision_type=2 2 2 2 2 2 2 2 2 2 2 2 2 2 2 2 2 2 2 2 2 2 2 2 2 2 2 2 2 2
left_child=2 3 8 4 11 20 10 15 17 24 12 13 -6 22 -9 -3 -12 -1 -17 -10 27 -13 -2 -21 -5 29 -16 -4 -25 -20
right_child=1 7 5 9 6 -7 -8 14 19 -11 16 21 -14 -15 26 18 -18 -19 25 23 -22 -23 -24 28 -26 -27 -28 -29 -30 -31
leaf_value=-0.037411835789680471 -0.014115072190761566 0.0076050927809306551 -0.015228082485058725 0.0072766722738742831 0.00074551812856673053 0.0041738510105226723 0.020802332684397698 0.016942275792360306 -0.026648408813135963 0.021520428881049155 0.0067789696984820891 -0.0036514538644175781 0.0054821361404131441 -0.0035966555237689096 0.021257687687873825 0.011134415835142136 0.013012786097824573 -0.029986565510431919 0.015309957655576557 -0.025644939064979534 -0.011882568776607512 0.0011516483631567097 -0.0082871399521827691 -0.022472210526466363 0.010632596508814738 0.019147544056177138 0.025455810825030008 -0.019330753684043883 -0.019411806315183636 0.01860278820991516
leaf_weight=8 5.9999999999999991 6.9999999999999991 17.000000000000004 11.999999999999998 52 13.999999999999998 7.9999999999999991 9.9999999999999982 13.999999999999998 7.9999999999999991 27 19 34 23 5.0000000000000027 9.9999999999999982 7.9999999999999991 9 26.000000000000004 5.0000000000000027 25 15.999999999999998 30 11.000000000000002 26 7.9999999999999991 18 4.9999999999999991 11.999999999999998 4.9999999999999991
leaf_count=8 6 7 17 12 52 14 8 10 14 8 27 19 34 23 5 10 8 9 26 5 25 16 30 11 26 8 18 5 12 5
internal_value=0.000304686 0.0063978 -0.0178731 0.00277942 0.000949479 -0.00974035 0.00526134 0.0173343 -0.0262816 0.0116507 0.00423384 -0.00496786 0.00261813 -0.00705132 0.0222399 0.0144434 0.00820384 -0.0334808 0.0154204 -0.0233676 -0.013885 -0.00145575 -0.00925846 -0.0217272 0.00957283 0.0165193 0.0245432 -0.0161605 -0.0208755 0.0158411
internal_weight=478 358 120 269 223 61 129 89 59 46 121 94 86 59 33 56 35 17 49 42 47 35 36 28 38 39 23 22 23 31
internal_count=478 358 120 269 223 61 129 89 59 46 121 94 86 59 33 56 35 17 49 42 47 35 36 28 38 39 23 22 23 31
is_linear=0
shrinkage=0.03


Tree=12
num_leaves=31
num_cat=4
split_feature=36 0 36 13 9 33 14 33 36 14 36 34 19 36 33 36 16 14 35 36 36 4 36 36 19 14 36 12 13 19
split_gain=55.349 17.6749 8.57899 3.12157 3.11351 1.62105 1.4802 1.39013 1.29398 0.599708 0.670701 0.518963 0.512886 0.461591 0.443092 0.433494 0.387281 0.3781 0.348395 0.327905 0.31317 0.244123 0.236313 0.168859 0.119564 0.104573 0.0831041 0.0774921 0.0679877 0.063301
threshold=64.286411055412557 0 49.27685950413224 2.416666666666667 9.0000000000000018 3.5000000000000004 25.000000000000004 2.5000000000000004 30.129820936639124 9.0000000000000018 78.386668473106639 1.0000000180025095e-35 1 162.1138461538462 1.5000000000000002 84.282279319041621 1.0000000180025095e-35 9.0000000000000018 1.0000000180025095e-35 95.39936268277178 88.134615384615401 1.0000000180025095e-35 36.712968849332491 58.40384615384616 2 15.500000000000002 137.34363636363639 1.0000000180025095e-35 2.0833333333333335 3
decision_type=2 1 2 2 2 2 2 2 2 2 2 2 1 2 2 2 2 2 2 2 2 2 2 2 1 2 2 2 2 1
left_child=2 6 8 23 5 15 14 9 21 -6 -11 -7 -5 26 -2 24 17 -9 -12 -19 -16 -1 -10 28 -3 29 -8 -15 -4 -22
right_child=1 4 3 12 7 11 13 16 22 10 18 -13 -14 27 20 -17 -18 19 -20 -21 25 -23 -24 -25 -26 -27 -28 -29 -30 -31
leaf_value=-0.029086969892183932 0.0084449240068594621 -0.0080313311258087983 -0.014771240178276506 -0.0071244741976261121 0.0079091145594914741 -1.7245411872863762e-05 0.014402037858963015 0.0088737757131457321 -0.025848956746714453 -0.0055127919684438143 0.0081283971294760695 0.010422208756208419 0.0041815901604982516 0.026328349908192942 0.011042585427110844 -0.0030498979857657101 0.011180817295204509 -0.001145383802553018 0.00046952442712701705 0.0049762859652262362 0.017371989607810969 -0.036289481520652762 -0.021075352472918373 -0.011914747527667455 -0.012289217356592412 0.019225727157159284 0.019638863325119015 0.022949016847108539 -0.018750830769538877 0.01482033044099808
leaf_weight=9 8.9999999999999982 23 17.000000000000004 5 8.9999999999999982 15.000000000000002 5.9999999999999982 20 13.999999999999998 17 5.9999999999999991 5.9999999999999991 13.000000000000002 9.0000000000000018 10.999999999999998 15.999999999999998 10.999999999999998 8.9999999999999982 49 63 15.000000000000002 8 28 21 8.0000000000000018 10.999999999999998 5 19 4.9999999999999991 20.999999999999996
leaf_count=9 9 23 17 5 9 15 6 20 14 17 6 6 13 9 11 16 11 9 49 63 15 8 28 21 8 11 5 19 5 21
internal_value=0.000295545 0.00620587 -0.0173369 -0.00944814 0.00146315 -0.00396409 0.0158479 0.00354839 -0.0254931 0.000607922 -0.000304728 0.00296546 0.00104102 0.0219896 0.0146382 -0.00706027 0.0058608 0.00522471 0.00130504 0.00421108 0.0155993 -0.0324764 -0.0226666 -0.013839 -0.00913014 0.0166657 0.0167824 0.0240352 -0.0156757 0.0158835
internal_weight=478 358 120 61 252 68 106 184 59 81 72 21 18 39 67 47 103 92 55 72 58 17 42 43 31 47 11 28 22 36
internal_count=478 358 120 61 252 68 106 184 59 81 72 21 18 39 67 47 103 92 55 72 58 17 42 43 31 47 11 28 22 36
cat_boundaries=0 1 2 3 4
cat_threshold=18 4 1 1
is_linear=0
shrinkage=0.03


Tree=13
num_leaves=31
num_cat=1
split_feature=36 0 36 2 9 33 14 33 36 2 36 2 18 36 33 36 2 36 36 2 36 36 36 2 18 2 36 3 13 36
split_gain=52.0779 16.6303 8.07197 3.47107 2.9295 1.52525 1.39272 1.30798 1.2175 0.952474 0.586742 0.488292 0.443192 0.434311 0.416906 0.407874 0.376794 0.294662 0.292834 0.229695 0.222347 0.219926 0.209474 0.164932 0.163 0.0976741 0.0781926 0.0729124 0.0639697 0.0561959
threshold=64.286411055412557 0 49.27685950413224 55.500000000000007 9.0000000000000018 3.5000000000000004 25.000000000000004 2.5000000000000004 30.129820936639124 55.500000000000007 234.55791666666667 55.500000000000007 3.0200000000000005 162.1138461538462 1.5000000000000002 84.282279319041621 55.500000000000007 88.134615384615401 95.39936268277178 24.100000000000005 36.712968849332491 78.386668473106639 58.40384615384616 24.100000000000005 4.7300000000000013 22.050000000000004 137.34363636363639 1.0000000180025095e-35 2.0833333333333335 41.735219326128423
decision_type=2 1 2 2 2 2 2 2 2 2 2 2 2 2 2 2 2 2 2 2 2 2 2 2 2 2 2 2 2 2
left_child=2 6 8 22 5 15 14 9 19 10 21 -7 16 26 -2 23 18 -16 -9 -1 -10 -6 28 -3 -19 -22 -8 -15 -4 -27
right_child=1 4 3 -5 7 11 13 12 20 -11 -12 -13 -14 27 17 -17 -18 24 -20 -21 25 -23 -24 -25 -26 29 -28 -29 -30 -31
leaf_value=-0.035200794339179983 0.0081915759543577833 -0.013322943598031991 -0.014328102907713719 0.0039474151017410411 -0.0053474081439130444 -1.6728039830923078e-05 0.013969976902008059 -0.0011110222463806469 -0.025073488226958682 0.0087961823831905015 0.0032263687929219523 0.010109542757272719 0.011104089990258217 0.02226054593136436 0.01071130798621611 -0.0029584010870894418 0.0086075622439384467 0.018624927308410404 0.0046798560569896513 -0.028214359879493708 -0.024243330359458908 -0.0010764717678539456 -0.011191642606258391 -0.0077842263758182524 0.014896524154370832 -0.021165783405303947 0.019049697875976556 0.025538500150044746 -0.018188306093215943 -0.018197191208600996
leaf_weight=8 8.9999999999999982 6.0000000000000027 17.000000000000004 13.999999999999998 17 15.000000000000002 5.9999999999999982 8.9999999999999982 13.999999999999998 10.999999999999998 23 5.9999999999999991 11.999999999999998 19 10.999999999999998 15.999999999999998 20 15.999999999999998 62 9 5.0000000000000027 30 25 25 31 11.000000000000002 5 9.0000000000000018 4.9999999999999991 11.999999999999998
leaf_count=8 9 6 17 14 17 15 6 9 14 11 23 6 12 19 11 16 20 16 62 9 5 30 25 25 31 11 5 9 5 12
internal_value=0.000286679 0.00601969 -0.0168168 -0.0091647 0.00141926 -0.00384517 0.0153725 0.00344194 -0.0247283 0.000589684 -0.000699909 0.00287649 0.00568497 0.0213299 0.0141991 -0.00684846 0.00497036 0.0151313 0.0039458 -0.0315021 -0.0219866 -0.00262128 -0.0130704 -0.00885624 0.0161658 -0.0204431 0.0162789 0.0233142 -0.0152054 -0.019617
internal_weight=478 358 120 61 252 68 106 184 59 81 70 21 103 39 67 47 91 58 71 17 42 47 47 31 47 28 11 28 22 23
internal_count=478 358 120 61 252 68 106 184 59 81 70 21 103 39 67 47 91 58 71 17 42 47 47 31 47 28 11 28 22 23
cat_boundaries=0 1
cat_threshold=18
is_linear=0
shrinkage=0.03


Tree=14
num_leaves=31
num_cat=5
split_feature=1 0 2 1 14 15 19 2 32 7 13 15 2 32 18 35 8 9 12 19 12 25 7 2 35 2 18 18 15 20
split_gain=53.0328 9.7165 5.71631 2.13522 1.73623 1.30245 1.16271 0.896469 0.680378 0.597222 0.550006 0.488624 0.373622 0.347758 0.318101 0.244613 0.186915 0.176138 0.101251 0.0735874 0.0661989 0.052276 0.041019 0.0362648 0.0213897 0.0177774 0.015068 0.011808 0.011296 0.00843178
threshold=0 1 25.300000000000004 2 25.000000000000004 1.0000000180025095e-35 3 55.500000000000007 1.0000000180025095e-35 5.0000000000000009 2.0833333333333335 1.0000000180025095e-35 22.050000000000004 1.0000000180025095e-35 7.6000000000000005 1.0000000180025095e-35 1.0000000180025095e-35 9.0000000000000018 1.0000000180025095e-35 4 1.0000000180025095e-35 1.0000000180025095e-35 1.0000000180025095e-35 41.500000000000007 1.5000000000000002 55.500000000000007 3.0200000000000005 1.9000000000000001 1.0000000180025095e-35 1.0000000180025095e-35
decision_type=1 1 2 1 2 2 1 2 2 2 2 2 2 2 2 2 2 2 2 1 2 2 2 2 2 2 2 2 2 2
left_child=1 6 3 8 14 17 -1 13 -2 11 12 -10 -5 -8 19 26 23 -4 -19 24 -17 25 -9 -6 -3 -16 -15 28 -11 -27
right_child=2 4 5 10 16 -7 7 22 9 27 -12 -13 -14 15 21 20 -18 18 -20 -21 -22 -23 -24 -25 -26 29 -28 -29 -30 -31
leaf_value=-0.0068377600251696988 -0.025673099040985106 0.013130553569644689 -0.0059888401321534597 -0.03146738827228545 0.021297641938382926 -0.011835161738248692 -0.0052630248963832851 0.0098062564432620999 -0.004984398937085641 -0.017386489391326899 -0.018408290259540081 -0.013642305023968218 -0.023455208659172055 0.0049362776586069504 0.012745506539940828 0.0036797094444574953 0.01832734218415092 -0.0012980029731988903 -0.0061544852256774901 0.016442420125007629 0.0018398262339178472 0.0089220025142033883 0.00712701631244272 0.023733671470121898 0.0150304253026843 0.010515032302249559 0.0064852428585290894 -0.017079740032553671 -0.019253472345215929 0.01175319651762644
leaf_weight=10 4.9999999999999991 15.999999999999998 28 11.000000000000004 11 37 4.9999999999999991 5.9999999999999991 8.0000000000000018 5 7.9999999999999991 22 10 13 8.0000000000000018 22 17 17.000000000000004 4.9999999999999991 14.999999999999998 88 8.9999999999999982 36 11 8.0000000000000018 11 10 10 7 9
leaf_count=10 5 16 28 11 11 37 5 6 8 5 8 22 10 13 8 22 17 17 5 15 88 9 36 11 8 11 10 10 7 9
internal_value=0.000278079 0.00780388 -0.01299 -0.0184748 0.0143007 -0.00756813 0.002963 0.0036721 -0.0151031 -0.0140867 -0.0251021 -0.0113335 -0.0276521 0.00250411 0.0129036 0.00279611 0.02069 -0.00441052 -0.00240175 0.0147941 0.0022078 0.010911 0.00750976 0.0225157 0.0137638 0.0115503 0.00560974 -0.0178411 -0.0184756 0.0110722
internal_weight=478 305 173 86 115 87 190 180 57 52 29 30 21 138 76 133 39 50 22 39 110 37 42 22 24 28 23 22 12 20
internal_count=478 305 173 86 115 87 190 180 57 52 29 30 21 138 76 133 39 50 22 39 110 37 42 22 24 28 23 22 12 20
cat_boundaries=0 1 2 3 4 5
cat_threshold=2 5 1 2 2
is_linear=0
shrinkage=0.03


Tree=15
num_leaves=31
num_cat=1
split_feature=1 36 14 2 36 36 18 36 36 36 36 17 36 36 36 2 2 36 27 36 36 36 18 36 36 2 2 36 36 36
split_gain=46.9031 12.8217 8.9199 3.23441 2.96379 2.07352 1.29641 1.26619 0.906875 0.600805 0.580111 0.542095 0.341379 0.229478 0.22797 0.504413 0.225709 0.201731 0.192532 0.154012 0.108603 0.107588 0.0724502 0.0638241 0.0621134 0.0553733 0.0510034 0.0471983 0.0427544 0.0392943
threshold=0 54.455863808322832 15.500000000000002 55.500000000000007 86.7921153846154 89.966515151515168 3.0200000000000005 34.145661157024797 83.056116015132417 66.772727272727295 158.59324009324013 1.0000000180025095e-35 26.809547304798325 44.982936556885001 277.50614837398376 29.500000000000004 29.500000000000004 68.536503783102162 1.0000000180025095e-35 113.16477908455181 404.07113821138216 78.386668473106639 3.6900000000000008 80.225524475524495 96.967213114754117 25.300000000000004 25.300000000000004 61.003496503496514 61.969746646795834 95.39936268277178
decision_type=1 2 2 2 2 2 2 2 2 2 2 2 2 2 2 2 2 2 2 2 2 2 2 2 2 2 2 2 2 2
left_child=2 7 3 5 9 16 14 12 17 25 19 18 -2 26 15 -7 -1 28 22 29 -8 -18 -4 -11 -10 -3 -9 -27 -5 -6
right_child=1 4 11 8 10 6 20 13 24 23 -12 -13 -14 -15 -16 -17 21 -19 -20 -21 -22 -23 -24 -25 -26 27 -28 -29 -30 -31
leaf_value=-0.0087074879743158813 -0.033202598435538133 -0.014367632567882533 0.020619327664375277 0.0033838833309710018 -0.0034518004457155835 -0.0002510341928739633 0.0096913886655654192 -0.022008881330490108 0.013326834328472611 -0.0079076021774248644 0.010723465025424957 0.02232386144724759 -0.025636233454165248 -0.016104659544570105 0.0050355295682775565 0.0047940700675450981 -0.0046625119660581842 0.0090358310639858247 0.011722139929022107 0.0024556034600192846 0.01451550006866455 -0.0006977929861221293 0.016482134386897086 -0.0052562675453149358 0.016340816795825958 -0.012787078733627609 -0.019152215321858717 -0.0097316031370844151 0.0063262925148010237 -0.00064843609308203054
leaf_weight=7.9999999999999991 7.0000000000000027 11.000000000000002 5.0000000000000062 8 9.0000000000000053 42 14.000000000000002 15 16.000000000000004 22 4.9999999999999991 22 23 13.999999999999998 29 31 14.000000000000002 30 6.9999999999999991 10.999999999999998 5.9999999999999991 10.999999999999998 15.999999999999998 12.999999999999998 9.9999999999999982 13.000000000000002 9 6.9999999999999991 10 8.9999999999999982
leaf_count=8 7 11 5 8 9 42 14 15 16 22 5 22 23 14 29 31 14 30 7 11 6 11 16 13 10 13 9 7 10 9
internal_value=-0.000220777 -0.012744 0.00732008 0.00481359 -0.00590969 0.0023501 0.00415472 -0.0227944 0.0099736 -0.0096166 0.00128608 0.0187998 -0.0274017 -0.0191571 0.00278532 0.00189141 -0.00432154 0.00752935 0.0160309 -0.000341051 0.0111386 -0.00291804 0.0174672 -0.00692282 0.0144861 -0.012658 -0.0209376 -0.0117177 0.00501856 -0.00205012
internal_weight=447 168 279 229 100 155 122 68 74 66 34 50 30 38 102 73 33 48 28 29 20 25 21 35 26 31 24 20 18 18
internal_count=447 168 279 229 100 155 122 68 74 66 34 50 30 38 102 73 33 48 28 29 20 25 21 35 26 31 24 20 18 18
cat_boundaries=0 1
cat_threshold=2
is_linear=0
shrinkage=0.03


Tree=16
num_leaves=31
num_cat=1
split_feature=1 36 14 33 36 36 2 34 9 36 36 33 36 2 36 36 36 17 36 15 36 36 36 2 36 36 36 36 2 2
split_gain=44.1311 12.0639 8.39273 3.30148 2.78863 1.19136 1.08012 0.659767 0.649206 0.565297 0.545827 0.522148 0.506613 0.462006 0.460028 0.321204 0.309134 0.236393 0.215916 0.209518 0.174806 0.17118 0.165282 0.15441 0.14491 0.0925154 0.0603807 0.0600521 0.0599254 0.0521008
threshold=0 54.455863808322832 15.500000000000002 2.5000000000000004 86.7921153846154 34.145661157024797 55.500000000000007 1.0000000180025095e-35 9.0000000000000018 66.772727272727295 158.59324009324013 1.5000000000000002 88.134615384615401 55.500000000000007 79.842152872003638 26.809547304798325 141.33272727272728 1.0000000180025095e-35 44.982936556885001 1.0000000180025095e-35 245.62054063360884 299.48004476584026 89.34767759562844 29.500000000000004 113.16477908455181 61.969746646795834 71.936633039092072 80.225524475524495 41.500000000000007 25.300000000000004
decision_type=1 2 2 2 2 2 2 2 2 2 2 2 2 2 2 2 2 2 2 2 2 2 2 2 2 2 2 2 2 2
left_child=2 5 3 8 9 15 7 16 22 29 24 17 26 14 -10 -2 -5 -4 -7 -13 -16 23 -1 -9 -6 -15 -8 -11 -21 -3
right_child=1 4 11 6 10 18 12 21 13 27 -12 19 -14 25 20 -17 -18 -19 -20 28 -22 -23 -24 -25 -26 -27 -28 -29 -30 -31
leaf_value=-0.01035823291540146 -0.032206522566931572 -0.013936604017561128 0.010414105951786042 0.0058210464516146596 -0.0019886147572348509 -0.020309502482414244 0.0067756284177303309 0.00067059783590957516 -0.0041697971150279041 -0.0076703741198236282 0.01040176087617874 0.022567177449955657 0.014639804065227507 0.0032823668606579287 -2.2892334319684387e-05 -0.024867146481638368 0.012654371697169084 0.018549837470054627 -0.015621519940240044 0.016206839382648466 0.003393204823996012 0.0065948905423283575 -0.0029729036428034301 0.0045006003510206938 0.002381935329599814 0.0076106876134872433 0.0095338823676109317 -0.005098579445710549 0.01958112913370132 -0.011366132497787475
leaf_weight=4.9999999999999982 7.0000000000000027 11.000000000000002 8.9999999999999982 11.000000000000002 18.000000000000004 24 9.9999999999999982 20 15.999999999999998 22 4.9999999999999991 17 21 8.0000000000000018 28 23 12.999999999999998 4.9999999999999991 13.999999999999998 9 26 11.999999999999998 6 18 10.999999999999998 9.9999999999999982 25 12.999999999999998 10 20
leaf_count=5 7 11 9 11 18 24 10 20 16 22 5 17 21 8 28 23 13 5 14 9 26 12 6 18 11 10 25 13 10 20
internal_value=-0.000214153 -0.0123617 0.00710048 0.00466918 -0.0057324 -0.0221106 0.00781261 0.00543378 0.000541443 -0.00932811 0.0012475 0.0182358 0.0109561 0.00140036 0.00029808 -0.0265797 0.00952243 0.0133197 -0.0185824 0.0201476 0.0016219 0.00347123 -0.00632987 0.00248481 -0.00033082 0.00568699 0.00874581 -0.00671514 0.0179828 -0.0122782
internal_weight=447 168 279 229 100 68 130 74 99 66 34 50 56 88 70 30 24 14 38 36 54 50 11 38 29 18 35 35 19 31
internal_count=447 168 279 229 100 68 130 74 99 66 34 50 56 88 70 30 24 14 38 36 54 50 11 38 29 18 35 35 19 31
cat_boundaries=0 1
cat_threshold=2
is_linear=0
shrinkage=0.03


Tree=17
num_leaves=31
num_cat=1
split_feature=1 36 14 33 36 18 36 2 13 36 33 36 2 36 36 13 17 36 17 33 36 36 33 36 36 36 18 2 2 2
split_gain=41.5229 11.3509 7.89672 3.10636 2.62433 1.382 1.12095 0.776324 0.610838 0.542536 0.491289 0.48861 0.434701 0.43284 0.30222 0.22581 0.222422 0.203156 0.197136 0.165258 0.16157 0.155514 0.137158 0.149749 0.0870477 0.0847819 0.0606402 0.0563838 0.0490216 0.0479891
threshold=0 54.455863808322832 15.500000000000002 2.5000000000000004 84.749492433795709 3.0200000000000005 34.145661157024797 55.500000000000007 2.2500000000000004 158.59324009324013 1.5000000000000002 66.772727272727295 55.500000000000007 79.842152872003638 26.809547304798325 3.0833333333333335 1.0000000180025095e-35 44.982936556885001 1.0000000180025095e-35 1.5000000000000002 99.791929382093329 89.34767759562844 3.5000000000000004 277.50614837398376 61.969746646795834 88.134615384615401 4.7300000000000013 41.500000000000007 25.300000000000004 25.300000000000004
decision_type=1 2 2 2 2 2 2 2 2 2 2 2 2 2 2 2 2 2 2 2 2 2 2 2 2 2 2 2 2 2
left_child=2 6 3 8 11 7 14 22 21 20 16 28 13 -10 -2 -9 -4 29 27 -15 -6 -1 23 -5 -14 -7 -27 -12 -3 -8
right_child=1 4 10 5 9 25 17 15 12 -11 18 -13 24 19 -16 -17 -18 -19 -20 -21 -22 -23 -24 -25 -26 26 -28 -29 -30 -31
leaf_value=-0.010047486126422884 -0.031240326506750904 -0.013518505584109908 0.010101682543754577 0.00067896641325205565 -0.003284844560548662 0.009276859480887651 -0.020739330172538754 0.0080078035533428168 -0.0040447031194344165 0.010089708209037779 0.015720634261767067 -0.0066647761518304994 0.0031838958291336879 -0.00014901848787513491 -0.024121132259783535 0.0144886015355587 0.017993342041969299 -0.015152874035494666 0.021890161703614627 0.0031724768646485503 0.0011616270646060767 -0.0028837165469303722 0.0050282664343714711 0.0051065496057271951 0.0073823669403791431 0.010746615663170814 0.013527196273207663 0.018993694961071009 -0.011025148607790469 -0.017968363364537551
leaf_weight=4.9999999999999982 7.0000000000000027 11.000000000000002 8.9999999999999982 22 12.000000000000002 7.9999999999999991 15 25.000000000000004 15.999999999999998 4.9999999999999991 9 33 8.0000000000000018 26 23 5.9999999999999991 4.9999999999999991 13.999999999999998 17 28 19 6 25 9.9999999999999982 9.9999999999999982 9.9999999999999982 24 10 20 9
leaf_count=5 7 11 9 22 12 8 15 25 16 5 9 33 8 26 23 6 5 14 17 28 19 6 25 10 10 10 24 10 20 9
internal_value=-0.000207729 -0.0119908 0.00688746 0.0045291 -0.00556043 0.00757823 -0.0214473 0.00544132 0.000525199 0.000919481 0.0176887 -0.00920538 0.00135835 0.000289137 -0.0257823 0.00926215 0.0129201 -0.0180249 0.0195432 0.00157324 -0.000559588 -0.00613998 0.00336332 0.00206259 0.00551638 0.0120556 0.0127094 0.0174433 -0.0119099 -0.0197002
internal_weight=447 168 279 229 100 130 68 88 99 36 50 64 88 70 30 31 14 38 36 54 31 11 57 32 18 42 34 19 31 24
internal_count=447 168 279 229 100 130 68 88 99 36 50 64 88 70 30 31 14 38 36 54 31 11 57 32 18 42 34 19 31 24
cat_boundaries=0 1
cat_threshold=2
is_linear=0
shrinkage=0.03


Tree=18
num_leaves=31
num_cat=1
split_feature=1 36 18 33 36 36 17 4 2 36 13 18 36 33 36 36 36 36 36 2 36 15 36 15 8 2 36 33 36 2
split_gain=39.0689 10.6801 5.86012 2.4933 2.46973 1.0547 1.0535 0.815901 0.815455 1.14232 0.57124 0.559713 0.500212 0.484758 0.483071 0.284359 0.203065 0.193237 0.191149 0.190048 0.188968 0.151949 0.13162 0.11425 0.111619 0.110601 0.0894772 0.0644587 0.0557986 0.0461244
threshold=0 54.455863808322832 3.6900000000000008 3.5000000000000004 86.7921153846154 34.145661157024797 1.0000000180025095e-35 1.0000000180025095e-35 55.500000000000007 89.966515151515168 3.0833333333333335 3.0200000000000005 66.772727272727295 2.5000000000000004 158.59324009324013 26.809547304798325 88.134615384615401 68.536503783102162 44.982936556885001 29.500000000000004 277.50614837398376 1.0000000180025095e-35 113.16477908455181 1.0000000180025095e-35 1.0000000180025095e-35 55.500000000000007 78.386668473106639 1.5000000000000002 80.225524475524495 25.300000000000004
decision_type=1 2 2 2 2 2 2 2 2 2 2 2 2 2 2 2 2 2 2 2 2 2 2 2 2 2 2 2 2 2
left_child=2 5 3 8 12 15 13 -5 9 19 21 20 29 23 22 -2 -15 -10 -7 -1 -11 25 -6 -4 -18 -9 -21 -8 -14 -3
right_child=1 4 6 7 14 18 27 10 17 11 -12 -13 28 16 -16 -17 24 -19 -20 26 -22 -23 -24 -25 -26 -27 -28 -29 -30 -31
leaf_value=-0.0079977690428495399 -0.030303116185324514 -0.013112950216640121 0.0042570925291095466 0.020575041174888609 -0.001889697251220544 -0.019109211042523385 0.017453542113304125 0.004877418507635593 0.0044849901460111124 0.0011438479466300646 0.015981046812874933 0.012348219573497772 -0.0072403197600082918 0.0089985537528991695 0.0097870171666145332 -0.023397498001223024 0.013484661617586689 0.010131594076752662 -0.014698287887232644 -0.0042762016238910797 0.0045181830413639542 0.010947260984352657 0.0022756284136663781 0.0096772811242512285 0.017678891888686588 0.0079139614811069084 -0.00066054538209837942 0.021507796645164487 -0.0047612786293029785 -0.010694393992424011
leaf_weight=7.9999999999999991 7.0000000000000027 11.000000000000002 6.9999999999999982 4.9999999999999991 18.000000000000004 24 5.0000000000000027 25 12.000000000000002 59 6.9999999999999991 4.9999999999999991 22 7.9999999999999991 4.9999999999999991 23 31 9.9999999999999982 13.999999999999998 14.000000000000002 20 6.9999999999999991 10.999999999999998 7 6.9999999999999991 19 10.999999999999998 11.999999999999998 12.999999999999998 20
leaf_count=8 7 11 7 5 18 24 5 25 12 59 7 5 22 8 5 23 31 10 14 14 20 7 11 7 7 19 11 12 13 20
internal_value=-0.000201497 -0.0116311 0.00668084 0.00399647 -0.00539362 -0.0208038 0.0137229 0.00894721 0.00175261 0.000756212 0.00794481 0.00261419 -0.00877748 0.0118551 0.00117507 -0.0250088 0.0133427 0.00705163 -0.0174841 -0.00397318 0.00199811 0.0068418 -0.000309746 0.00696719 0.0142573 0.00618865 -0.00268531 0.0203154 -0.00631953 -0.0115526
internal_weight=447 168 279 202 100 68 77 63 139 117 58 84 66 60 34 30 46 22 38 33 79 51 29 14 38 44 25 17 35 31
internal_count=447 168 279 202 100 68 77 63 139 117 58 84 66 60 34 30 46 22 38 33 79 51 29 14 38 44 25 17 35 31
cat_boundaries=0 1
cat_threshold=2
is_linear=0
shrinkage=0.03


Tree=19
num_leaves=31
num_cat=1
split_feature=1 36 18 33 36 36 17 4 2 36 7 18 36 33 36 36 36 36 36 2 2 36 13 8 36 2 33 2 7 2
split_gain=36.76 10.0489 5.51379 2.34595 2.32436 0.996527 0.991241 0.767682 0.767262 1.07481 0.53748 0.526634 0.480147 0.456109 0.432296 0.249794 0.191113 0.191064 0.182858 0.180302 0.178817 0.145971 0.13329 0.105022 0.0841891 0.0700334 0.0606492 0.0495636 0.0446115 0.0433985
threshold=0 54.455863808322832 3.6900000000000008 3.5000000000000004 84.749492433795709 32.806011265984132 1.0000000180025095e-35 1.0000000180025095e-35 55.500000000000007 89.966515151515168 7.0000000000000009 3.0200000000000005 158.59324009324013 2.5000000000000004 66.772727272727295 44.982936556885001 26.809547304798325 88.134615384615401 69.895230998509703 24.100000000000005 29.500000000000004 99.791929382093329 2.2500000000000004 1.0000000180025095e-35 78.386668473106639 25.300000000000004 1.5000000000000002 55.500000000000007 5.0000000000000009 25.300000000000004
decision_type=1 2 2 2 2 2 2 2 2 2 2 2 2 2 2 2 2 2 2 2 2 2 2 2 2 2 2 2 2 2
left_child=2 5 3 8 14 16 13 -5 9 20 22 19 21 -4 29 25 -2 -15 -10 -11 -1 -6 -9 -19 -22 -7 -8 -24 -16 -3
right_child=1 4 6 7 12 15 26 10 18 11 -12 -13 -14 17 28 -17 -18 23 -20 -21 24 -23 27 -25 -26 -27 -28 -29 -30 -31
leaf_value=-0.0077578360587358475 -0.029394022566931573 -0.012719561755657192 0.0067581713465707646 0.019957790851593018 -0.0031152504030615082 -0.019997427951205862 0.016929935574531544 0.010192240588366985 0.0047725671210459286 0.0011876912214868372 0.015501615107059477 0.011977772891521453 0.0094934064745903022 0.0087285969033837323 -0.0058062982905123916 -0.01425733955843108 -0.023450804874300957 0.013080121884422917 0.010458225756883622 0.004675194971701678 -0.0041479155740567607 0.0011111240422255113 0.0053045460833236573 0.017148524522781372 -0.00064072901266627009 -0.016856036980946853 0.020862562656402586 0.0075222544257457441 -0.0088826606869697577 -0.010373562254011631
leaf_weight=7.9999999999999991 7.0000000000000027 11.000000000000002 13.999999999999998 4.9999999999999991 12.000000000000002 22 5.0000000000000027 7.9999999999999991 14.000000000000002 62 6.9999999999999991 4.9999999999999991 4.9999999999999991 7.9999999999999991 28 13.999999999999998 15.999999999999998 31 7.9999999999999991 17 14.000000000000002 19 30 6.9999999999999991 10.999999999999998 9.0000000000000018 11.999999999999998 12.999999999999998 4.9999999999999991 20
leaf_count=8 7 11 14 5 12 22 5 8 14 62 7 5 5 8 28 14 16 31 8 17 14 19 30 7 11 9 12 13 5 20
internal_value=-0.000195452 -0.0112822 0.00648041 0.00387657 -0.00523181 -0.0201797 0.0133113 0.00867879 0.00170003 0.000733526 0.00770646 0.00253576 0.000866538 0.0114994 -0.00866213 -0.0175833 -0.0252596 0.0129424 0.00684008 0.00193817 -0.00385399 -0.000524892 0.00663654 0.0138296 -0.00260475 -0.0190854 0.0197059 0.00597502 -0.00627241 -0.011206
internal_weight=447 168 279 202 100 68 77 63 139 117 58 84 36 60 64 45 23 46 22 79 33 31 51 38 25 31 17 43 33 31
internal_count=447 168 279 202 100 68 77 63 139 117 58 84 36 60 64 45 23 46 22 79 33 31 51 38 25 31 17 43 33 31
cat_boundaries=0 1
cat_threshold=2
is_linear=0
shrinkage=0.03


Tree=20
num_leaves=31
num_cat=2
split_feature=1 36 18 33 36 17 19 36 33 7 36 36 36 8 33 18 36 36 36 36 8 36 36 33 35 36 12 36 36 9
split_gain=37.8122 8.18906 6.20971 2.08369 1.74553 1.03312 0.948094 0.869385 0.432591 0.387427 0.467111 0.380466 0.300138 0.29118 0.272763 0.253075 0.244831 0.224159 0.222401 0.195188 0.190287 0.141685 0.140853 0.117099 0.116102 0.105322 0.100348 0.0925595 0.0807037 0.0804257
threshold=0 54.455863808322832 3.6900000000000008 3.5000000000000004 82.322949777495253 1.0000000180025095e-35 1 33.112603305785136 1.5000000000000002 7.0000000000000009 311.72251721763092 113.16477908455181 66.772727272727295 1.0000000180025095e-35 1.5000000000000002 3.0200000000000005 89.34767759562844 78.386668473106639 145.16703030303032 26.809547304798325 1.0000000180025095e-35 40.470580979400523 88.134615384615401 1.5000000000000002 1.5000000000000002 89.966515151515168 1.0000000180025095e-35 122.4559090909091 234.55791666666667 9.0000000000000018
decision_type=1 2 2 2 2 2 1 2 2 2 2 2 2 2 2 2 2 2 2 2 2 2 2 2 2 2 2 2 2 2
left_child=2 7 3 6 12 8 16 19 20 10 29 -6 -3 22 24 17 -1 -16 -17 -2 -4 -9 -10 -7 25 -8 -23 -13 -26 -5
right_child=1 4 5 9 11 23 14 21 13 -11 -12 27 -14 -15 15 18 -18 -19 -20 -21 -22 26 -24 -25 28 -27 -28 -29 -30 -31
leaf_value=-0.010338184386491771 -0.028514666557311996 -0.010731324281762628 0.0048039731789718959 0.0090853603184223169 -0.0027453851310366931 0.014897658705711353 0.00090148411077362555 -0.018749761680761971 0.0084225996335347483 0.015382085889577865 0.014120357036590576 0.001668581920010703 -0.0066833354230038822 0.018357235959597998 0.0070036429166793817 0.0030055689811706544 -0.0023214371118228882 0.0021885161835060855 0.011572495996952054 -0.022345247983932497 0.011445655822753906 -0.014151720951000847 0.012630595437117984 0.020157370269298553 -0.0027361779566854229 0.0057250380814075474 -0.018955894231796264 0.0070128512978553754 0.0015250818617641925 0.0058095053960244315
leaf_weight=6.0000000000000009 6.0000000000000027 34 11.000000000000002 7.9999999999999991 22 5.0000000000000027 22.000000000000004 18 8.9999999999999982 5.9999999999999991 7.9999999999999991 6.9999999999999982 32 6.9999999999999991 9.9999999999999982 4.9999999999999982 7.9999999999999991 67 6 20 5.9999999999999991 18.000000000000004 35 15.999999999999998 12.000000000000002 4.9999999999999991 4.9999999999999991 5 5.9999999999999991 43
leaf_count=6 6 34 11 8 22 5 22 18 9 6 8 7 32 7 10 5 8 67 6 20 6 18 35 16 12 5 5 5 6 43
internal_value=8.66755e-05 -0.0113616 0.00643837 0.00364646 -0.00592386 0.0130887 0.00166873 -0.0194776 0.0112925 0.00811918 0.00738058 -0.000401592 -0.00876866 0.012674 0.00245041 0.00342193 -0.00575719 0.00281386 0.00767844 -0.023769 0.0071481 -0.0167562 0.0117699 0.0189051 0.000550538 0.00179473 -0.0151961 0.00389536 -0.00131576 0.00632336
internal_weight=468 167 301 212 100 89 147 67 68 65 59 34 66 51 133 88 14 77 11 26 17 41 44 21 45 27 23 12 18 51
internal_count=468 167 301 212 100 89 147 67 68 65 59 34 66 51 133 88 14 77 11 26 17 41 44 21 45 27 23 12 18 51
cat_boundaries=0 1 2
cat_threshold=2 2
is_linear=0
shrinkage=0.03


Tree=21
num_leaves=31
num_cat=1
split_feature=1 36 14 33 36 18 36 9 33 2 36 36 2 36 2 36 36 36 36 2 36 2 36 2 36 36 36 36 15 36
split_gain=35.5775 7.70509 7.1335 2.1996 1.64549 1.29299 0.819002 0.751391 0.626556 0.529453 0.337642 0.296613 0.242516 0.333477 0.190452 0.188344 0.1758 0.1483 0.137876 0.214833 0.135791 0.108274 0.101458 0.0944176 0.0874966 0.0806744 0.0725141 0.062755 0.0882824 0.058259
threshold=0 54.455863808322832 15.500000000000002 2.5000000000000004 84.282279319041621 3.0200000000000005 32.806011265984132 9.0000000000000018 1.5000000000000002 55.500000000000007 66.772727272727295 122.4559090909091 55.500000000000007 245.62054063360884 24.400000000000002 89.34767759562844 40.470580979400523 26.809547304798325 287.09364669421495 29.500000000000004 78.386668473106639 24.400000000000002 112.71625344352617 22.050000000000004 77.275469735182853 61.969746646795834 299.48004476584026 83.056116015132417 1.0000000180025095e-35 284.47458333333338
decision_type=1 2 2 2 2 2 2 2 2 2 2 2 2 2 2 2 2 2 2 2 2 2 2 2 2 2 2 2 2 2
left_child=2 6 3 7 10 9 17 15 21 18 -3 22 13 20 29 -1 -8 -2 19 -5 -9 -4 -6 -18 -11 -14 -15 -7 -29 -10
right_child=1 4 8 5 11 27 16 12 14 24 -12 -13 25 26 -16 -17 23 -19 -20 -21 -22 -23 -24 -25 -26 -27 -28 28 -30 -31
leaf_value=-0.010028038769960404 -0.027659226059913618 -0.010409384203307769 0.0076143306493759132 -0.0004707287563207118 -0.0027622585259377943 0.0079765812121331686 -0.018491350358182734 -0.0039793186113238335 0.012054347991943361 0.0069690487254410972 -0.0062406175086895622 0.0068024658411741257 0.00254554767278023 0.0025652945282704682 0.019021474821814172 -0.0027846050422106463 -0.018387217640876755 -0.022128683924674986 0.0050791901350021361 0.0036622648296179248 2.5724396109580994e-05 0.012624305540865115 0.0011388528775423765 -0.013727169434229533 0.01133144599199295 0.0061024028062820436 0.0064014514163136475 0.011809895310018744 0.0087343737483024583 0.016294285399573189
leaf_weight=5.9999999999999982 6.0000000000000027 34 6.0000000000000009 19 15.000000000000005 7.9999999999999991 22 9.9999999999999982 4.9999999999999982 24.000000000000004 36 4.9999999999999991 12.000000000000002 17.000000000000004 29 7 5.0000000000000027 15.999999999999998 18 28 32 11 9.9999999999999982 18 4.9999999999999991 10.999999999999998 5.9999999999999991 28 11.999999999999998 7
leaf_count=6 6 34 6 19 15 8 22 10 5 24 36 5 12 17 29 7 5 16 18 28 32 11 10 18 5 11 6 28 12 7
internal_value=8.40753e-05 -0.0110207 0.00624522 0.0039889 -0.00574614 0.00639607 -0.0188933 0.000604567 0.0156984 0.00435042 -0.00826545 0.000132233 0.00159911 0.000662288 0.0177062 -0.00612773 -0.0165741 -0.023637 0.00284654 0.00199148 -0.000927857 0.0108561 -0.00120181 -0.0147402 0.00772119 0.00424665 0.00356603 0.0104021 0.0108872 0.0145276
internal_weight=468 167 301 243 100 142 67 101 58 94 70 30 88 65 41 13 45 22 65 47 42 17 25 23 29 23 23 48 40 12
internal_count=468 167 301 243 100 142 67 101 58 94 70 30 88 65 41 13 45 22 65 47 42 17 25 23 29 23 23 48 40 12
cat_boundaries=0 1
cat_threshold=2
is_linear=0
shrinkage=0.03


Tree=22
num_leaves=31
num_cat=2
split_feature=1 36 14 33 36 18 36 9 33 36 33 36 14 36 9 36 36 1 9 36 36 36 7 36 36 36 36 36 18 36
split_gain=33.4749 7.24972 6.71191 2.0696 1.54938 1.21657 0.772069 0.706984 0.589526 0.337083 0.269906 0.264697 0.18896 0.259846 0.179197 0.177213 0.17231 0.130863 0.101875 0.101849 0.100121 0.297533 0.0959092 0.0814739 0.079108 0.0683689 0.0682285 0.0590462 0.0658494 0.0566738
threshold=0 54.455863808322832 15.500000000000002 2.5000000000000004 82.322949777495253 3.0200000000000005 33.112603305785136 9.0000000000000018 1.5000000000000002 113.16477908455181 3.5000000000000004 66.772727272727295 9.0000000000000018 245.62054063360884 9.0000000000000018 89.34767759562844 26.809547304798325 1 9.0000000000000018 41.735219326128423 277.50614837398376 110.65151515151514 7.0000000000000009 122.4559090909091 89.966515151515168 64.286411055412557 299.48004476584026 83.056116015132417 4.7300000000000013 106.18281172379535
decision_type=1 2 2 2 2 2 2 2 2 2 2 2 2 2 2 2 2 1 2 2 2 2 2 2 2 2 2 2 2 2
left_child=2 6 3 7 11 10 16 15 18 -6 20 -3 25 22 -10 -1 -2 19 -4 -8 21 -5 -14 -11 -12 -9 -15 -7 -29 -26
right_child=1 4 8 5 9 27 17 12 14 23 24 -13 13 26 -16 -17 -18 -19 -20 -21 -22 -23 -24 -25 29 -27 -28 28 -30 -31
leaf_value=-0.0097271976619958886 -0.026829448938369735 -0.010097102693775121 0.0073859006166458099 0.004246687392348094 -0.002577142074534839 0.0077372836880385872 -0.016389277160167689 0.0024436690514752011 0.01409181535243988 0.0015843588965279718 0.0070741323042999614 -0.0062956168223172425 -0.00090002155505187272 0.0024883356931454988 0.018450830938487216 -0.0027010669559240337 -0.02103285402059555 -0.018396735489368436 0.012245576408776368 -0.012831421941518784 0.0047161264259081613 -0.0016591438521364969 0.0034953006505966185 0.0065983918458223326 0.0023324498614030213 0.0061414765318234758 0.0062094079330563537 0.0089018376384462621 0.011453812861671813 0.0054494207884584148
leaf_weight=5.9999999999999982 6.0000000000000027 34 6.0000000000000009 17.000000000000004 22 7.9999999999999991 15.000000000000002 9.0000000000000018 11.999999999999998 6.9999999999999982 22 32 42 17.000000000000004 29 7 20 11.999999999999998 11 13.999999999999998 12.999999999999998 13.999999999999998 4.9999999999999991 5 7.0000000000000027 8.9999999999999982 5.9999999999999991 13.999999999999998 26 21
leaf_count=6 6 34 6 17 22 8 15 9 12 7 22 32 42 17 29 7 20 12 11 14 13 14 5 5 7 9 6 14 26 21
internal_value=8.15531e-05 -0.0106901 0.00605786 0.00386923 -0.00557376 0.00620419 -0.0183265 0.00058643 0.0152275 -0.000371019 0.00421991 -0.00825396 0.00155114 0.000846196 0.017175 -0.0059439 -0.0223705 -0.0157619 0.0105304 -0.0146717 0.00250626 0.00157954 -0.000432434 0.00367354 0.00572792 0.00429257 0.00345905 0.0100901 0.0105606 0.00467018
internal_weight=468 167 301 243 100 142 67 101 58 34 94 66 88 70 41 13 26 41 17 29 44 31 47 12 50 18 23 48 40 28
internal_count=468 167 301 243 100 142 67 101 58 34 94 66 88 70 41 13 26 41 17 29 44 31 47 12 50 18 23 48 40 28
cat_boundaries=0 1 2
cat_threshold=2 1
is_linear=0
shrinkage=0.03


Tree=23
num_leaves=31
num_cat=3
split_feature=1 36 0 36 33 17 36 16 33 36 15 2 36 36 36 36 2 36 36 36 8 2 36 36 33 2 19 36 36 36
split_gain=31.4965 6.82126 5.8907 1.46368 0.9862 0.88716 0.728122 0.631906 0.458511 0.363082 0.358131 0.344856 0.341963 0.211642 0.209364 0.200143 0.190101 0.157239 0.138411 0.130636 0.125518 0.123907 0.188022 0.106902 0.0964192 0.0834238 0.0698778 0.0643283 0.0584718 0.0565232
threshold=0 54.455863808322832 1 86.7921153846154 2.5000000000000004 1.0000000180025095e-35 32.806011265984132 1.0000000180025095e-35 1.5000000000000002 66.772727272727295 1.0000000180025095e-35 29.500000000000004 277.50614837398376 122.4559090909091 73.312121212121227 137.34363636363639 55.500000000000007 40.470580979400523 245.62054063360884 26.809547304798325 1.0000000180025095e-35 55.500000000000007 105.00224788872332 92.430203676105322 1.5000000000000002 22.050000000000004 2 64.286411055412557 80.225524475524495 112.71625344352617
decision_type=1 2 1 2 2 2 2 2 2 2 2 2 2 2 2 2 2 2 2 2 2 2 2 2 2 2 1 2 2 2
left_child=2 6 5 9 7 8 19 16 20 -3 23 12 -6 29 -9 21 18 -8 -4 -2 -1 22 -13 -10 -7 -19 -12 -18 -11 -5
right_child=1 3 4 13 11 24 17 14 10 28 26 15 -14 -15 -16 -17 27 25 -20 -21 -22 -23 -24 -25 -26 -27 -28 -29 -30 -31
leaf_value=0.0051104799600747899 -0.02602456629276274 -0.0097941898905179077 -0.00055061732723569383 -0.0020950885294005262 -0.0016093695486363556 0.01370463216304778 -0.017403178485957058 -0.0075653963461518262 0.0081677972468046037 -0.0064617305764785183 0.016446334272623059 0.00036179173237178478 0.0043374361016828072 0.0064004401266574851 -0.0015676782060075889 0.0096103604435920711 0.0023703589965589334 -0.017283698558807362 0.0026462787134866965 -0.020833838135004043 0.010356189906597138 0.0065914192199707025 0.0053230229087851263 0.01147903013560507 0.018386797654001336 -0.01290334681669871 0.012931594960391517 0.0059572320679823557 -0.0041096387058496475 0.0010946100186556577
leaf_weight=13.000000000000002 6.0000000000000027 34 34 10.000000000000005 13.999999999999998 5.0000000000000027 22 10.000000000000002 12.999999999999998 26 14 9.9999999999999982 23 4.9999999999999991 10.999999999999998 9.9999999999999982 9.0000000000000018 5.0000000000000027 19 15.999999999999998 5.9999999999999991 25 22 27 19 18 8 8.9999999999999982 14.999999999999998 9.9999999999999982
leaf_count=13 6 34 34 10 14 5 22 10 13 26 14 10 23 5 11 10 9 5 19 16 6 25 22 27 19 18 8 9 15 10
internal_value=7.91064e-05 -0.0103694 0.00587613 -0.00540655 0.00229345 0.0112718 -0.0177767 0.000147915 0.0108443 -0.00750203 0.0120938 0.00441196 0.00208729 0.000879897 -0.00442373 0.00569572 0.00150009 -0.01559 0.00059544 -0.0222495 0.00676702 0.00500895 0.00377264 0.0104029 0.0174113 -0.0138556 0.0151682 0.0041638 -0.00560121 -0.000500239
internal_weight=468 167 301 100 196 105 67 92 81 75 62 104 37 25 21 67 71 45 53 22 19 57 32 40 24 23 22 18 41 20
internal_count=468 167 301 100 196 105 67 92 81 75 62 104 37 25 21 67 71 45 53 22 19 57 32 40 24 23 22 18 41 20
cat_boundaries=0 1 2 3
cat_threshold=2 18 1
is_linear=0
shrinkage=0.03


Tree=24
num_leaves=31
num_cat=1
split_feature=36 0 36 2 2 36 14 36 33 36 33 14 36 36 33 36 2 36 36 2 36 36 2 36 36 36 2 36 2 36
split_gain=27.3931 8.6419 4.07169 1.8251 1.67298 1.78656 0.829715 0.51448 0.501237 0.308782 0.302619 0.2874 0.194818 0.188315 0.176513 0.166124 0.164142 0.149245 0.122915 0.116584 0.179083 0.110083 0.107311 0.0796653 0.0719388 0.0635032 0.0477127 0.0581765 0.0424138 0.041719
threshold=64.286411055412557 0 49.27685950413224 55.500000000000007 29.500000000000004 95.39936268277178 25.000000000000004 32.806011265984132 2.5000000000000004 245.62054063360884 1.5000000000000002 9.0000000000000018 86.7921153846154 137.34363636363639 1.5000000000000002 93.445901639344271 25.300000000000004 80.225524475524495 26.809547304798325 55.500000000000007 104.25142821659217 122.4559090909091 24.100000000000005 58.40384615384616 40.470580979400523 289.78916666666674 24.100000000000005 284.47458333333338 25.300000000000004 234.55791666666667
decision_type=2 1 2 2 2 2 2 2 2 2 2 2 2 2 2 2 2 2 2 2 2 2 2 2 2 2 2 2 2 2
left_child=2 6 7 23 5 17 14 18 11 16 -8 -6 -13 19 -2 -16 29 22 -1 20 -10 -18 -3 -4 28 -11 -17 -28 -9 -7
right_child=1 4 3 -5 8 9 10 24 13 25 -12 12 -14 -15 15 26 21 -19 -20 -21 -22 -23 -24 -25 -26 -27 27 -29 -30 -31
leaf_value=-0.02524382889270781 0.0060321894194930786 -0.010323692783713334 -0.010737581593649728 0.0026342050332043851 0.0057785150905450182 -0.001871872121701017 0.011521863016215238 -0.017687722519040102 -0.00058180040014641627 0.0024549758364446461 0.017365775807150478 -0.0022137340592841303 0.0031920689965287841 0.0093220495730638488 0.008275436908006667 0.010188283681869506 0.00075661162007600066 -0.0036205396228111706 -0.0202088226377964 0.0063936765968799587 0.0048470116496086117 0.0062084270417690273 -0.005818614810705185 -0.0081794692079226166 -0.014186779022216796 0.0048122052351633705 0.011765320442224801 0.014964627793857028 -0.014730045199394226 0.00043446066929027436
leaf_weight=6.0000000000000027 7.9999999999999991 6.0000000000000027 28 13.999999999999998 8.9999999999999982 24 10.999999999999998 16.000000000000004 6.9999999999999991 24 29 18.000000000000004 8.9999999999999982 9.9999999999999982 15.999999999999998 9.9999999999999982 9.9999999999999982 26 15.999999999999998 25 25 4.9999999999999991 23 18 14.999999999999998 18 19.000000000000004 6.9999999999999991 5.9999999999999991 9.9999999999999982
leaf_count=6 8 6 28 14 9 24 11 16 7 24 29 18 9 10 16 10 10 26 16 25 25 5 23 18 15 18 19 7 6 10
internal_value=7.67333e-05 0.00431491 -0.0123529 -0.00685006 0.00102207 -0.00100231 0.0112835 -0.017949 0.00399081 0.00157766 0.0157587 0.00113578 -0.0004118 0.00552485 0.0101807 0.0108189 -4.02464e-05 -0.00527099 -0.021582 0.00485868 0.00365946 0.00257388 -0.0067507 -0.00973658 -0.0157888 0.00346522 0.0119493 0.0126267 -0.0168811 -0.00119354
internal_weight=468 349 119 60 249 146 100 59 103 91 40 36 27 67 60 52 49 55 22 57 32 15 29 46 37 42 36 26 22 34
internal_count=468 349 119 60 249 146 100 59 103 91 40 36 27 67 60 52 49 55 22 57 32 15 29 46 37 42 36 26 22 34
cat_boundaries=0 1
cat_threshold=18
is_linear=0
shrinkage=0.03


Tree=25
num_leaves=31
num_cat=0
split_feature=36 14 36 2 36 2 18 36 36 36 36 2 36 35 2 2 36 36 36 36 36 36 2 36 36 2 36 2 36 36
split_gain=22.99 7.05342 3.7552 2.94845 2.69697 1.7631 0.84073 0.542948 0.463125 0.346105 0.315226 0.270157 0.509302 0.199527 0.141709 0.128821 0.117519 0.0958668 0.0794169 0.0793495 0.0505395 0.0464781 0.0571216 0.0462537 0.0440716 0.0545895 0.0606432 0.0438026 0.0431244 0.0370665
threshold=64.286411055412557 15.500000000000002 49.27685950413224 55.500000000000007 104.25142821659217 55.500000000000007 3.0200000000000005 137.34363636363639 32.806011265984132 83.056116015132417 79.842152872003638 25.300000000000004 245.62054063360884 1.5000000000000002 29.500000000000004 29.500000000000004 58.40384615384616 26.809547304798325 40.470580979400523 284.47458333333338 120.05437062937064 404.07113821138216 29.500000000000004 100.28373266078185 164.97515151515154 41.500000000000007 353.49593495934965 24.100000000000005 73.312121212121227 192.20400000000004
decision_type=2 2 2 2 2 2 2 2 2 2 2 2 2 2 2 2 2 2 2 2 2 2 2 2 2 2 2 2 2 2
left_child=2 3 8 4 10 16 11 -3 17 28 15 12 -6 19 -12 27 -4 -1 -10 -9 -13 22 -8 -11 -15 26 -26 -2 -5 -27
right_child=1 7 5 9 6 -7 21 13 18 23 14 20 -14 24 -16 -17 -18 -19 -20 -21 -22 -23 -24 -25 25 29 -28 -29 -30 -31
leaf_value=-0.024489965200424176 -0.0084641351550817437 0.005052428096532822 -0.010502877301639979 0.005376406854816846 -0.0015282641220505215 0.0025552551820874213 0.004794580042362208 0.010393388352610848 -0.016576860213980957 0.0099821554975850213 -0.0028038255452852824 0.0036269611333097731 0.0033988162925148884 0.01352137178182602 0.00064582469829046574 -0.0030250430185543866 -0.0076177006587386138 -0.019650657304695673 -0.013717617094516753 0.014951363503932953 0.0062112284700075781 0.010393151726041522 0.0086111237481236429 0.012841698937118054 0.013527035613854725 0.016548943608999254 0.017647725105285641 -0.0056097904175519946 0.0074437574017792935 0.019712479233741753
leaf_weight=5.0000000000000027 6.0000000000000027 5.9999999999999991 27 21 35 14.999999999999998 5.0000000000000044 10.999999999999998 17 14.000000000000002 29 28 41 5.9999999999999991 17 19 24 13.999999999999998 18 4.9999999999999991 8.9999999999999982 6.9999999999999991 12 7.9999999999999991 8.9999999999999982 9.9999999999999982 5.0000000000000009 25 15.999999999999998 5.0000000000000009
leaf_count=5 6 6 27 21 35 15 5 11 17 14 29 28 41 6 17 19 24 14 18 5 9 7 12 8 9 10 5 25 16 5
internal_value=4.10064e-05 0.00393578 -0.0112863 0.00205146 0.000534504 -0.00648596 0.00323633 0.0135888 -0.0171534 0.00804218 -0.00332122 0.00215326 0.00112977 0.0145931 -0.00152895 -0.00497011 -0.00914515 -0.0209242 -0.0151064 0.0118178 0.00425557 0.00833577 0.00748861 0.011022 0.0158618 0.016346 0.0149987 -0.00616224 0.0062704 0.0176035
internal_weight=469 349 120 292 233 66 137 57 54 59 96 113 76 51 46 50 51 19 35 16 37 24 17 22 35 29 14 31 37 15
internal_count=469 349 120 292 233 66 137 57 54 59 96 113 76 51 46 50 51 19 35 16 37 24 17 22 35 29 14 31 37 15
is_linear=0
shrinkage=0.03


Tree=26
num_leaves=31
num_cat=1
split_feature=36 14 36 2 36 2 19 36 36 36 2 33 34 36 36 36 36 9 36 36 36 36 3 36 36 36 2 36 13 36
split_gain=21.6313 6.63656 3.53326 2.77419 2.53784 1.6589 0.726194 0.51086 0.435754 0.325651 0.279422 0.27457 0.187735 0.122816 0.118463 0.116677 0.110573 0.108142 0.0996361 0.0902011 0.0747234 0.0746599 0.0654931 0.0478388 0.0437312 0.0435201 0.0412139 0.0405758 0.0372143 0.0336748
threshold=64.286411055412557 15.500000000000002 49.27685950413224 55.500000000000007 95.39936268277178 55.500000000000007 0 137.34363636363639 32.806011265984132 83.056116015132417 29.500000000000004 1.5000000000000002 1.0000000180025095e-35 133.59421328671331 79.842152872003638 80.225524475524495 58.40384615384616 9.0000000000000018 219.04125000000002 26.809547304798325 40.470580979400523 284.47458333333338 1.0000000180025095e-35 353.49593495934965 404.07113821138216 100.28373266078185 24.100000000000005 73.312121212121227 2.0833333333333335 192.20400000000004
decision_type=2 2 2 2 2 2 1 2 2 2 2 2 2 2 2 2 2 2 2 2 2 2 2 2 2 2 2 2 2 2
left_child=2 3 8 4 10 16 13 -3 19 27 15 18 21 -6 -12 26 -4 -13 -8 -1 -10 -9 23 -14 -15 -11 -2 -5 -22 -24
right_child=1 7 5 9 6 -7 11 12 20 25 14 17 22 24 -16 -17 -18 -19 -20 -21 28 -23 29 -25 -26 -27 -28 -29 -30 -31
leaf_value=-0.023755267024040204 -0.0082102111726999223 0.004900855422019958 -0.010187791022989485 0.0052151145679610114 0.0035694805798786007 0.0024785975292325019 -0.0041867979057133202 0.010081586675210433 -0.016079554154592401 0.0096826908843857876 -0.0029342917529375928 0.00028874553383930645 0.013820259398535676 0.0072639526032349626 0.00056926331431895961 -0.0031911969091743229 -0.0073891695402562617 0.0029234675460029389 0.00071416254554476036 -0.019061137522969927 -0.011942008733749385 0.014502822518348694 0.015787537842988968 0.017118292808532713 0.010081357061862944 0.012456448115408421 -0.0054414967149496079 0.0072204447537660595 -0.014670168260733286 0.019121105432510371
leaf_weight=5.0000000000000027 6.0000000000000027 5.9999999999999991 27 21 7.0000000000000027 14.999999999999998 7.9999999999999982 10.999999999999998 17 14.000000000000002 19 17 19.000000000000004 17.000000000000004 15.999999999999998 24 24 80 7 13.999999999999998 9.0000000000000018 4.9999999999999991 5.9999999999999982 4.9999999999999991 6.9999999999999991 7.9999999999999991 25 15.999999999999998 8.9999999999999982 5
leaf_count=5 6 6 27 21 7 15 8 11 17 14 19 17 19 17 16 24 24 80 7 14 9 5 6 5 7 8 25 16 9 5
internal_value=3.97762e-05 0.00381771 -0.0109477 0.00198992 0.000518468 -0.00629139 0.00300233 0.0131811 -0.0166388 0.00780091 -0.00342812 0.0018776 0.0141553 0.00706591 -0.00133267 -0.00476159 -0.00887079 0.00246171 -0.00189968 -0.0202964 -0.0146532 0.0114632 0.0153859 0.0145073 0.0080857 0.0106913 -0.00597738 0.00608228 -0.0133061 0.0173028
internal_weight=469 349 120 292 233 66 143 57 54 59 90 112 51 31 35 55 51 97 15 19 35 16 35 24 24 22 31 37 18 11
internal_count=469 349 120 292 233 66 143 57 54 59 90 112 51 31 35 55 51 97 15 19 35 16 35 24 24 22 31 37 18 11
cat_boundaries=0 1
cat_threshold=4
is_linear=0
shrinkage=0.03


Tree=27
num_leaves=31
num_cat=1
split_feature=1 14 36 33 36 18 36 9 7 36 14 15 33 12 14 36 33 36 36 17 32 15 36 36 36 7 36 36 15 36
split_gain=22.138 5.3271 5.28349 1.52967 1.35332 0.903134 0.586301 0.45024 0.305406 0.28367 0.247284 0.243932 0.226364 0.149009 0.149996 0.148165 0.146369 0.142167 0.10686 0.10133 0.100763 0.0765415 0.0745295 0.0559749 0.046491 0.0417819 0.0356545 0.034534 0.04589 0.0307339
threshold=0 15.500000000000002 54.455863808322832 2.5000000000000004 82.322949777495253 3.0200000000000005 34.145661157024797 9.0000000000000018 7.0000000000000009 113.16477908455181 9.0000000000000018 1.0000000180025095e-35 1.5000000000000002 1.0000000180025095e-35 9.0000000000000018 66.772727272727295 3.5000000000000004 89.34767759562844 26.809547304798325 1.0000000180025095e-35 1.0000000180025095e-35 1.0000000180025095e-35 122.4559090909091 79.842152872003638 46.061294765840231 5.0000000000000009 95.39936268277178 61.003496503496514 1.0000000180025095e-35 88.134615384615401
decision_type=1 2 2 2 2 2 2 2 2 2 2 2 2 2 2 2 2 2 2 2 2 2 2 2 2 2 2 2 2 2
left_child=1 3 6 7 15 8 18 17 10 26 -5 13 19 -9 -15 27 -12 -1 -2 -3 -8 -14 -11 -13 -22 -17 -6 -4 -29 -7
right_child=2 12 4 5 9 29 20 11 -10 22 16 23 21 14 -16 25 -18 -19 -20 -21 24 -23 -24 -25 -26 -27 -28 28 -30 -31
leaf_value=-0.0084747125208377849 -0.023042607665061932 0.0082805275917053212 -0.0091850911316118736 0.0057594480551779268 -0.0026831578331835125 0.0069331166893243784 -0.016199007332324981 0.0045193072541483805 0.010784611254930496 0.001532085193321109 0.0010019253959916042 -0.0037566926926374438 0.016047959526379902 0.0037489088438451288 0.00033617879409575835 -0.0051079625533572556 0.0039231021858107014 -0.0016252514272928234 -0.018085009058316549 0.012920851819217202 -0.013353985637426376 0.013381983935832975 0.005955206733196973 0.00013088013895321639 -0.01104948926430482 -0.0080773761570453653 -0.00025442838901653883 -0.0097385727167129468 -0.0063177631050348277 0.009256989955902099
leaf_weight=5.9999999999999982 5.0000000000000027 9 19 24 17.000000000000004 5.9999999999999991 7.9999999999999991 13.999999999999998 4.9999999999999991 7.9999999999999982 38 9.9999999999999982 18 14.999999999999998 51 29 26 5 18 8 20 21 6 4.9999999999999991 12.999999999999998 4.9999999999999991 7.9999999999999991 5.0000000000000009 12 35
leaf_count=6 5 9 19 24 17 6 8 14 5 8 38 10 18 15 51 29 26 5 18 8 20 21 6 5 13 5 8 5 12 35
internal_value=3.85829e-05 0.00502147 -0.00848705 0.00307741 -0.00446974 0.00520759 -0.015329 0.000384547 0.0035723 8.68748e-06 0.00316251 0.00104986 0.0133532 0.00170811 0.0011118 -0.00696486 0.00218865 -0.00536132 -0.0191627 0.0104642 -0.0131784 0.0146124 0.00342771 -0.00246084 -0.0124462 -0.00554464 -0.00190596 -0.00830619 -0.00732388 0.00891691
internal_weight=469 296 173 240 109 134 64 106 93 39 88 95 56 80 66 70 64 11 23 17 41 39 14 15 33 34 25 36 17 41
internal_count=469 296 173 240 109 134 64 106 93 39 88 95 56 80 66 70 64 11 23 17 41 39 14 15 33 34 25 36 17 41
cat_boundaries=0 1
cat_threshold=2
is_linear=0
shrinkage=0.03


Tree=28
num_leaves=31
num_cat=3
split_feature=1 14 36 33 36 36 2 19 2 36 36 33 36 36 33 36 36 36 2 36 36 2 20 17 15 36 36 19 36 36
split_gain=20.8296 5.01227 4.97124 1.43927 1.27437 0.553565 0.534058 0.50367 0.432819 0.540887 0.249549 0.212986 0.211775 0.19964 0.174802 0.240021 0.169417 0.154911 0.147116 0.11614 0.115947 0.108132 0.0995057 0.0953413 0.0720179 0.0587708 0.0586454 0.0510197 0.050685 0.0448007
threshold=0 15.500000000000002 54.455863808322832 2.5000000000000004 86.7921153846154 36.712968849332491 55.500000000000007 1 55.500000000000007 78.386668473106639 93.445901639344271 1.5000000000000002 122.4559090909091 66.772727272727295 3.5000000000000004 245.62054063360884 245.62054063360884 137.34363636363639 22.050000000000004 26.809547304798325 68.536503783102162 29.500000000000004 1.0000000180025095e-35 1.0000000180025095e-35 1.0000000180025095e-35 73.312121212121227 99.791929382093329 2 46.061294765840231 74.344372218690424
decision_type=1 2 2 2 2 2 2 1 2 2 2 2 2 2 2 2 2 2 2 2 2 2 2 2 2 2 2 1 2 2
left_child=1 3 5 8 13 19 7 17 9 21 25 23 26 -4 15 -9 22 -5 -7 -2 -10 -1 -11 -3 -13 -8 -6 -15 -20 -29
right_child=2 11 4 6 12 18 10 14 20 16 -12 24 -14 27 -16 -17 -18 -19 28 -21 -22 -23 -24 -25 -26 -27 -28 29 -30 -31
leaf_value=-0.0082204712182283382 -0.022351330876350387 0.008032111823558806 -0.0080570021023352936 0.0037518254419167817 -0.0021400001374157988 -0.015912012755870817 0.0046649979906422745 -0.0016279949222103149 0.0028467514179646965 0.0013763059464981778 0.010904778625283922 0.015566520591576894 0.005776550266891718 -0.007835054755210874 0.0038054090910232979 0.003791510295122862 0.0027285491256043314 0.0085722588499387107 -0.012501867314179736 -0.017263833369527543 0.0079812188744544967 -0.0034552147686481467 -0.0017924526853378415 0.012533226124942299 0.0129805240886552 0.0071514386074109509 0.00074391780514270064 -0.0056020716067991761 -0.0099170636317946689 -0.003482179352465798
leaf_weight=6.0000000000000009 5.0000000000000027 9 36 9.0000000000000018 11.000000000000002 8.9999999999999982 13.999999999999998 19.000000000000004 19.000000000000004 14.999999999999998 13.999999999999998 18 5.9999999999999991 5 26 11.999999999999998 24 18 18.000000000000004 21 4.9999999999999991 15 22 8 21 22 14.999999999999998 19 10.999999999999998 17
leaf_count=6 5 9 36 9 11 9 14 19 19 15 14 18 6 5 26 12 24 18 18 21 5 15 22 8 21 22 15 19 11 17
internal_value=3.74254e-05 0.00487083 -0.00823244 0.00298509 -0.00433565 -0.0148692 0.00505136 0.00359017 0.000373011 -0.000664088 0.00750617 0.0129526 0.00069619 -0.0064268 0.00199135 0.000469878 0.000765505 0.00696545 -0.0125613 -0.0182422 0.00391643 -0.00481672 -0.000507821 0.0101503 0.0141741 0.00618449 -0.000476201 -0.00499541 -0.0115214 -0.00460101
internal_weight=469 296 173 240 109 64 134 84 106 82 50 56 32 77 57 31 61 27 38 26 24 21 37 17 39 36 26 41 29 36
internal_count=469 296 173 240 109 64 134 84 106 82 50 56 32 77 57 31 61 27 38 26 24 21 37 17 39 36 26 41 29 36
cat_boundaries=0 1 2 3
cat_threshold=2 4 2
is_linear=0
shrinkage=0.03


Tree=29
num_leaves=31
num_cat=1
split_feature=1 14 36 33 36 18 36 9 7 14 15 36 33 36 12 14 33 36 36 33 17 15 36 36 7 36 36 36 15 36
split_gain=19.5986 4.71605 4.67744 1.35421 1.1993 0.800826 0.520932 0.39816 0.273007 0.218305 0.216376 0.213467 0.200398 0.170997 0.134611 0.13261 0.12987 0.126113 0.0942636 0.0903514 0.0897067 0.0677617 0.0657963 0.0497225 0.0448169 0.0408803 0.0367156 0.0324931 0.0431779 0.0289257
threshold=0 15.500000000000002 54.455863808322832 2.5000000000000004 84.749492433795709 3.0200000000000005 34.145661157024797 9.0000000000000018 7.0000000000000009 9.0000000000000018 1.0000000180025095e-35 122.4559090909091 1.5000000000000002 66.772727272727295 1.0000000180025095e-35 9.0000000000000018 3.5000000000000004 89.34767759562844 26.809547304798325 1.0000000180025095e-35 1.0000000180025095e-35 1.0000000180025095e-35 99.791929382093329 79.842152872003638 5.0000000000000009 46.061294765840231 74.344372218690424 61.003496503496514 1.0000000180025095e-35 71.936633039092072
decision_type=1 2 2 2 2 2 2 2 2 2 2 2 2 2 2 2 2 2 2 2 2 2 2 2 2 2 2 2 2 2
left_child=1 3 6 7 13 8 18 17 9 29 14 22 20 27 -9 -16 -11 -1 -2 -8 -3 -14 -6 -12 26 -21 -15 -4 -29 -5
right_child=2 12 4 5 11 -7 19 10 -10 16 23 -13 21 24 15 -17 -18 -19 -20 25 -22 -23 -24 -25 -26 -27 -28 28 -30 -31
leaf_value=-0.0079738572239875793 -0.021680789351463302 0.0077911484241485578 -0.0086678284641943486 0.004067960381507872 -0.0021943735503233389 0.0083927317726902855 -0.015256184041500091 0.0042793600686958861 0.010178969711065293 0.00093963423152576726 -0.0035403354652225969 0.0056032539159059525 0.015099525054295857 -0.0054340094720062449 0.0035202321968972683 0.00031137420487699699 0.0036912468143810444 -0.0015227203220129009 -0.017024543881416321 -0.012553793370723723 0.012157229706645008 0.012591108552047184 0.00072160026989877225 0.00012368965800851583 -0.0076000029444694521 -0.010392823563172266 -0.0034485388547182082 -0.0092047051191329922 -0.0058865199983119953 0.006219265460968018
leaf_weight=5.9999999999999982 5.0000000000000027 9 19 9.0000000000000018 13.000000000000002 41 7.9999999999999991 13.999999999999998 4.9999999999999991 38 9.9999999999999982 5.9999999999999991 18 19 14.999999999999998 51 26 5 18 20 8 21 14.999999999999998 4.9999999999999991 4.9999999999999991 12.999999999999998 14.999999999999998 5.0000000000000009 12 14.999999999999998
leaf_count=6 5 9 19 9 13 41 8 14 5 38 10 6 18 19 15 51 26 5 18 20 8 21 15 5 5 13 15 5 12 15
internal_value=3.63027e-05 0.0047247 -0.00798547 0.00289554 -0.00420558 0.00489982 -0.0144231 0.00036182 0.00335994 0.00297249 0.000987471 0.000468137 0.012564 -0.00632433 0.00160743 0.00104066 0.00205748 -0.00504152 -0.0180368 -0.0123959 0.00984577 0.0137488 -0.000632245 -0.00231899 -0.00494806 -0.0117025 -0.00455807 -0.00781529 -0.00686246 0.00541253
internal_weight=469 296 173 240 109 134 64 106 93 88 95 34 56 75 80 66 64 11 23 41 17 39 28 15 39 33 34 36 17 24
internal_count=469 296 173 240 109 134 64 106 93 88 95 34 56 75 80 66 64 11 23 41 17 39 28 15 39 33 34 36 17 24
cat_boundaries=0 1
cat_threshold=2
is_linear=0
shrinkage=0.03


Tree=30
num_leaves=31
num_cat=8
split_feature=1 0 2 1 19 17 15 32 2 7 15 19 4 15 9 35 15 12 18 19 19 15 2 19 18 18 7 25 2 7
split_gain=20.9147 4.11136 2.61714 0.793023 0.663693 0.617191 0.428536 0.306156 0.232909 0.180141 0.245502 0.151815 0.112394 0.110312 0.0942012 0.0925404 0.0915727 0.0727875 0.0691404 0.0564908 0.0550245 0.0489724 0.0404691 0.0345988 0.0271693 0.0154267 0.014624 0.0078799 0.0131082 0.00614518
threshold=0 1 25.300000000000004 2 3 1.0000000180025095e-35 1.0000000180025095e-35 1.0000000180025095e-35 55.500000000000007 5.0000000000000009 1.0000000180025095e-35 4 1.0000000180025095e-35 1.0000000180025095e-35 9.0000000000000018 1.0000000180025095e-35 1.0000000180025095e-35 1.0000000180025095e-35 7.6000000000000005 5 6 1.0000000180025095e-35 41.500000000000007 7 3.0200000000000005 1.9000000000000001 1.0000000180025095e-35 1.0000000180025095e-35 55.500000000000007 7.0000000000000009
decision_type=1 1 2 1 1 2 2 2 2 2 2 1 2 2 2 2 2 2 2 1 1 2 2 1 2 2 2 2 2 2
left_child=1 4 3 7 -1 13 14 -2 15 10 -9 12 -5 18 -4 21 -14 -17 23 -16 -15 -6 -7 29 -19 -11 -10 28 -20 -3
right_child=2 5 6 11 8 22 -8 9 26 25 -12 -13 16 20 19 17 -18 24 27 -21 -22 -23 -24 -25 -26 -27 -28 -29 -30 -31
leaf_value=-0.0046435580058739731 -0.01610005646944046 0.0099046911299228643 -0.0038863876312971116 -0.01388614296913146 0.0045249585285782809 0.012770387636763707 -0.006972552805340715 -0.0032842923142015934 0.0058183460682630543 -0.011599686363568671 -0.0091286799765151472 -0.011399346664547913 -0.019946778595447547 0.011609978258609771 -0.0037230692324893809 0.0027984491121382095 -0.014974392235279077 0.00079723809897660504 0.0087670174241065903 -0.00057045261914792807 0.0087370582222938507 0.0018146339182276276 0.015013092458248136 0.0082590660080313662 0.0026376151666045186 -0.010108042340725657 0.0042043753713369367 0.00618040420114994 0.0070578487643173761 0.011392059266567228
leaf_weight=13 5.9999999999999991 5 30 8.0000000000000036 15 14 35 8.9999999999999982 5.9999999999999991 13 23 6.0000000000000027 9.9999999999999947 15 7 26 5.0000000000000009 74 5.0000000000000027 19.000000000000004 10 10 15 12 7.9999999999999991 12 32 5.9999999999999991 21 5
leaf_count=13 6 5 30 8 15 14 35 9 6 13 23 6 10 15 7 26 5 74 5 19 10 10 15 12 8 12 32 6 21 5
internal_value=-2.39565e-05 0.00495955 -0.00797578 -0.0115439 0.00179361 0.00932396 -0.00436847 -0.00965414 0.00238788 -0.00897563 -0.00748495 -0.0156491 -0.0167578 0.00881323 -0.00274092 0.00179607 -0.0182893 0.00141534 0.00805046 -0.00141923 0.0104608 0.00344083 0.0139304 0.00934512 0.000976787 -0.0108837 0.00445921 0.00716039 0.00738654 0.0106484
internal_weight=475 292 183 92 184 108 91 63 171 57 32 29 23 79 56 133 15 108 54 26 25 25 29 22 82 25 38 32 26 10
internal_count=475 292 183 92 184 108 91 63 171 57 32 29 23 79 56 133 15 108 54 26 25 25 29 22 82 25 38 32 26 10
cat_boundaries=0 1 2 3 4 5 6 7 8
cat_threshold=2 5 1 2 1 4 1 1
is_linear=0
shrinkage=0.03


Tree=31
num_leaves=31
num_cat=3
split_feature=1 0 33 33 33 14 9 7 1 9 33 14 4 13 4 9 33 9 18 14 18 33 13 18 32 15 8 7 20 33
split_gain=19.6787 3.86838 3.22699 1.2418 0.647728 0.601276 0.528283 0.338661 0.307324 0.284385 0.253142 0.218577 0.214589 0.120965 0.16188 0.114395 0.106518 0.105646 0.0965935 0.0891987 0.0705569 0.065761 0.0564649 0.0454519 0.0395178 0.035737 0.0304196 0.0255569 0.0217991 0.0153272
threshold=0 1 1.5000000000000002 3.5000000000000004 1.5000000000000002 25.000000000000004 9.0000000000000018 5.0000000000000009 2 9.0000000000000018 1.5000000000000002 9.0000000000000018 1.0000000180025095e-35 2.0833333333333335 1.0000000180025095e-35 9.0000000000000018 1.5000000000000002 9.0000000000000018 4.7300000000000013 9.0000000000000018 3.0200000000000005 3.5000000000000004 2.416666666666667 1.9000000000000001 1.0000000180025095e-35 1.0000000180025095e-35 1.0000000180025095e-35 5.0000000000000009 1.0000000180025095e-35 2.5000000000000004
decision_type=1 1 2 2 2 2 2 2 1 2 2 2 2 2 2 2 2 2 2 2 2 2 2 2 2 2 2 2 2 2
left_child=1 4 6 7 9 10 8 25 12 -1 22 -6 24 14 -10 -13 -7 -5 -12 -11 21 -17 -3 -9 -2 -4 -18 -26 -21 -27
right_child=2 5 3 17 11 16 -8 23 13 19 18 15 -14 -15 -16 20 26 -19 -20 28 -22 -23 -24 -25 27 29 -28 -29 -30 -31
leaf_value=-0.0068505756024803436 -0.015617054998874657 0.0065078727900981905 -0.0043511161399739122 0.00027395950916867987 0.005270066360632578 0.01036604069173336 -0.0051129015348851678 -0.011157937844594318 -0.013469558358192435 0.0020067994025620545 0.011081286162137986 -0.0017668727948330343 -0.0091753632451097161 -0.011997201815247535 -0.018893445088313171 0.0016722579119243443 0.014326489312308175 0.0045022626221179951 0.008248498130303164 7.4219214729964707e-06 0.0044752450849461769 0.0034336688100463811 0.0025418300421110218 -0.0081429116179545704 -0.013936144212881722 -0.0064849338361195139 0.012152575962245459 -0.011675308048725127 -0.0018008568339670699 -0.0051445000509128848
leaf_weight=6.9999999999999991 6.0000000000000027 5.9999999999999982 35 13 27 11.999999999999998 7.9999999999999991 9 8.0000000000000036 10.999999999999998 14.999999999999998 5.9999999999999991 18 5.9999999999999991 13 65 21 9 39 9.0000000000000018 13.999999999999998 27 7 9 9 14.000000000000002 8.0000000000000018 9 18 17
leaf_count=7 6 6 35 13 27 12 8 9 8 11 15 6 18 6 13 65 21 9 39 9 14 27 7 9 9 14 8 9 18 17
